pos	mean_pc2	extreme_pc2	max_pc2	min_pc2	max_abs_pc2
1	0.016475383220578378	3.4377541814032515	3.4377541814032515	-3.2292177915523075	3.4377541814032515
2	0.8444859058213852	4.407365988702879	4.407365988702879	-1.4835739930162928	4.407365988702879
3	0.8152947709784831	3.705472421880772	3.705472421880772	-2.514104699756844	3.705472421880772
4	0.6201690395398399	2.7449093969127722	2.7449093969127722	-0.5141795290461872	2.7449093969127722
5	0.6096197597201197	4.092709075437298	4.092709075437298	-2.6557799622696727	4.092709075437298
6	0.5909920028842335	-3.043930005382271	2.842950794189715	-3.043930005382271	3.043930005382271
7	0.2038116323882649	-2.656640423814369	2.644331740172266	-2.656640423814369	2.656640423814369
8	1.2631247877724918	3.446948755453976	3.446948755453976	-1.193679213198351	3.446948755453976
9	0.6350075365279487	2.9158652478562077	2.9158652478562077	-1.7958987204855	2.9158652478562077
10	1.1007727479369736	4.152839568182168	4.152839568182168	-2.7457344406809536	4.152839568182168
11	0.5427128775658678	3.571588602896797	3.571588602896797	-1.5109124280012363	3.571588602896797
12	1.317805935216945	3.8528112914968418	3.8528112914968418	-1.1389673892171037	3.8528112914968418
13	0.8090207913632874	3.5591477258391304	3.5591477258391304	-2.6950395692093307	3.5591477258391304
14	0.9919567260853631	3.450033815541028	3.450033815541028	-0.8621651160310998	3.450033815541028
15	1.1736025132775858	4.295322005404328	4.295322005404328	-1.7718182513255325	4.295322005404328
16	0.19472485312579235	-2.9515656446220144	2.2600603007162055	-2.9515656446220144	2.9515656446220144
17	0.8797547251309514	3.703817454592639	3.703817454592639	-3.596069982352568	3.703817454592639
18	0.6779432746967868	4.803506720160402	4.803506720160402	-1.948852981685624	4.803506720160402
19	1.518371219225692	4.078668403268798	4.078668403268798	-1.1447813972432488	4.078668403268798
20	0.5989504114086552	3.285176927353155	3.285176927353155	-2.2304303853137646	3.285176927353155
21	0.9779089997852164	6.022378367091671	6.022378367091671	-3.1668565781924753	6.022378367091671
22	-0.195817187552765	-3.559806115539996	2.8923971938666493	-3.559806115539996	3.559806115539996
23	1.587260332380812	3.389792041523522	3.389792041523522	-1.5591435400372404	3.389792041523522
24	1.5080514589090719	5.415556876190857	5.415556876190857	-1.0282746353022498	5.415556876190857
25	1.07772816252178	3.3684751139774884	3.3684751139774884	-1.7917127659500565	3.3684751139774884
26	1.1062770615479252	3.7534957869600034	3.7534957869600034	-2.5918921712552936	3.7534957869600034
27	0.9623967151502358	4.636658284067437	4.636658284067437	-2.124268513712737	4.636658284067437
28	0.43511012891045975	-3.5580250365416255	3.003473533504052	-3.5580250365416255	3.5580250365416255
29	0.28862867313282825	3.1767586931475744	3.1767586931475744	-1.4758971321025	3.1767586931475744
30	0.801738815460556	3.3141549526051217	3.3141549526051217	-1.9709124092530164	3.3141549526051217
31	1.247726770578109	3.854441248899218	3.854441248899218	-1.4574803312406097	3.854441248899218
32	0.967396904177872	3.80606009530752	3.80606009530752	-1.6300874739808149	3.80606009530752
33	0.8476169762930155	4.727151184322676	4.727151184322676	-1.734490616893115	4.727151184322676
34	0.9035621051414668	5.651497925847583	5.651497925847583	-3.646221730696632	5.651497925847583
35	1.3721448539281353	4.326740764834303	4.326740764834303	-0.6223513862971615	4.326740764834303
36	0.719474127131097	3.5733028251775325	3.5733028251775325	-0.9699072601153871	3.5733028251775325
37	0.31636330430338133	3.6738556692970543	3.6738556692970543	-1.9093919810906697	3.6738556692970543
38	0.6123705886165638	4.438721069537606	4.438721069537606	-2.2750017396884625	4.438721069537606
39	0.5053961758419189	5.433271084666267	5.433271084666267	-2.0864537289835945	5.433271084666267
40	-1.2655004076514849	-4.918629300027926	1.3842125530971792	-4.918629300027926	4.918629300027926
41	1.291116412106887	4.602138800796033	4.602138800796033	-1.494100239617609	4.602138800796033
42	-0.2956698978996795	4.074760965390725	4.074760965390725	-3.2175827403810957	4.074760965390725
43	-1.2550095503332481	-4.846152343011224	2.046411409563344	-4.846152343011224	4.846152343011224
44	-0.7266388202771652	-4.597642576912218	3.7255212316720416	-4.597642576912218	4.597642576912218
45	0.6924969786281866	3.639274986395314	3.639274986395314	-1.7509682118035363	3.639274986395314
46	-1.2545724342072004	-4.109050608168767	2.797825358592851	-4.109050608168767	4.109050608168767
47	0.47078834208886045	3.955875050034218	3.955875050034218	-2.569537543386131	3.955875050034218
48	-0.7630030405031717	-4.755945747303135	4.38521686912966	-4.755945747303135	4.755945747303135
49	0.642713408637408	4.757489568029089	4.757489568029089	-3.1223371874908583	4.757489568029089
50	0.0258353491050646	7.194284146161162	7.194284146161162	-3.6488855615369604	7.194284146161162
51	1.0702619334794816	3.5459211418073164	3.5459211418073164	-2.2663862486894466	3.5459211418073164
52	0.10322871919445104	-5.816433327643485	4.103686426895046	-5.816433327643485	5.816433327643485
53	0.657227353214042	4.140896333247225	4.140896333247225	-1.6072440146973666	4.140896333247225
54	-0.6207712543082426	-5.5674945188059	4.475696439447229	-5.5674945188059	5.5674945188059
55	-0.32526328178975655	3.0607964313594707	3.0607964313594707	-2.4128425169736993	3.0607964313594707
56	-0.03670169190334499	-3.6472083572863663	3.435949320670512	-3.6472083572863663	3.6472083572863663
57	-0.37392506991828867	4.845693300222614	4.845693300222614	-4.13427366189271	4.845693300222614
58	0.5137050821489871	6.20019244285663	6.20019244285663	-2.926279217203389	6.20019244285663
59	0.412124241897747	3.384817311433302	3.384817311433302	-3.2030281270938774	3.384817311433302
60	-0.6507939521563866	-5.206090085090016	2.04637655828569	-5.206090085090016	5.206090085090016
61	-1.6621613164630191	-5.848376616012179	3.055173474407014	-5.848376616012179	5.848376616012179
62	-0.45174261450610464	-3.6160301827475307	1.5393771082713648	-3.6160301827475307	3.6160301827475307
63	0.21211766267324175	2.776857452699329	2.776857452699329	-2.3797306399590537	2.776857452699329
64	-1.0018533159687644	-3.8160960160489776	2.279883171921149	-3.8160960160489776	3.8160960160489776
65	0.23500174693641568	-5.502988736714077	4.265866631136542	-5.502988736714077	5.502988736714077
66	-0.3758101392065324	-2.983246638905214	2.7311423813517184	-2.983246638905214	2.983246638905214
67	-0.39760095245683086	-3.6940273674947917	3.396898337021035	-3.6940273674947917	3.6940273674947917
68	-0.6147040946031346	4.998603132750977	4.998603132750977	-3.52444488512819	4.998603132750977
69	0.6147747993248436	4.257223836263171	4.257223836263171	-2.5198173723382435	4.257223836263171
70	-0.07488221345611883	-2.9109280476832202	2.034500817461872	-2.9109280476832202	2.9109280476832202
71	-1.0521389317829943	-4.7075816361827645	1.6083185026641398	-4.7075816361827645	4.7075816361827645
72	-1.1367242180727215	-3.459002377546108	1.8051885177293152	-3.459002377546108	3.459002377546108
73	-1.2515516242102507	-4.573663131593898	1.272040550245703	-4.573663131593898	4.573663131593898
74	-0.44745933981922775	5.423599404036816	5.423599404036816	-3.9235127696235366	5.423599404036816
75	-0.18584168481690483	-2.9727203865941156	1.8389791813064078	-2.9727203865941156	2.9727203865941156
76	-0.685062528390295	-3.399562346899556	2.3113951978323075	-3.399562346899556	3.399562346899556
77	1.3574837591084274	8.5833030230082	8.5833030230082	-1.7771614025210376	8.5833030230082
78	-1.0298249948646632	-3.761597063701105	2.086660296531521	-3.761597063701105	3.761597063701105
79	2.874658064621775	10.677817465516704	10.677817465516704	-2.822110509543733	10.677817465516704
80	-1.501261587596875	5.602474286833215	5.602474286833215	-4.152005534318115	5.602474286833215
81	-1.006907250574572	-3.030517194510722	2.1822094418765565	-3.030517194510722	3.030517194510722
82	-0.841066628024719	-4.642564396094148	3.669875602089683	-4.642564396094148	4.642564396094148
83	-1.197743132260994	-4.730637986935106	3.107722653200956	-4.730637986935106	4.730637986935106
84	-0.5551031088027754	3.945484015658051	3.945484015658051	-3.5602642137877067	3.945484015658051
85	0.2996339435285634	-3.0279248107614625	3.003310092281788	-3.0279248107614625	3.0279248107614625
86	-0.9974723357645373	-5.363239897637194	3.7059149892971854	-5.363239897637194	5.363239897637194
87	-0.415114782963273	-3.7613871524838043	2.1246132877633177	-3.7613871524838043	3.7613871524838043
88	-0.8234514547931634	-4.046722104329378	3.2035333845592686	-4.046722104329378	4.046722104329378
89	0.47058488274566407	4.38847908412211	4.38847908412211	-4.098257768847138	4.38847908412211
90	0.9583373608202941	3.169960270745384	3.169960270745384	-1.7717615794513941	3.169960270745384
91	-0.04684611984059128	-4.068986194747483	2.683633519652634	-4.068986194747483	4.068986194747483
92	-0.7030611342103981	-6.12286553373932	5.092586724664633	-6.12286553373932	6.12286553373932
93	-1.255423484770128	-3.5958499894335207	2.1174196148514035	-3.5958499894335207	3.5958499894335207
94	0.4975562293893192	6.102533816915247	6.102533816915247	-2.1790444281487824	6.102533816915247
95	-0.23632886804538564	-2.653804548326866	2.6526515350125637	-2.653804548326866	2.653804548326866
96	-0.058293713809627626	-3.9180731316236366	2.869888000352692	-3.9180731316236366	3.9180731316236366
97	0.9702123605014988	-4.95384947586364	4.4647180214098645	-4.95384947586364	4.95384947586364
98	0.6726642267389831	4.194450053029767	4.194450053029767	-2.7093428276148623	4.194450053029767
99	1.6459548738341014	4.492586500531279	4.492586500531279	-1.8104916667354352	4.492586500531279
100	0.6897285541698015	4.410658075921955	4.410658075921955	-2.126480519250522	4.410658075921955
101	0.35162251385927146	4.08000857602906	4.08000857602906	-2.934077635960137	4.08000857602906
102	0.024672076248156972	5.152386069936395	5.152386069936395	-4.225886582363311	5.152386069936395
103	0.5106873134702646	3.3796603270954737	3.3796603270954737	-3.335092031717609	3.3796603270954737
104	0.5526731581918114	4.0098960136896125	4.0098960136896125	-1.632543349904144	4.0098960136896125
105	1.829975138245765	5.1788191786899835	5.1788191786899835	-1.782136499024558	5.1788191786899835
106	-1.48349330231717	-6.800263213072103	2.2775185019659343	-6.800263213072103	6.800263213072103
107	-1.7340600496469025	-6.141568430044713	2.837234815083699	-6.141568430044713	6.141568430044713
108	0.19910788761370163	5.162593469460954	5.162593469460954	-4.797433973009756	5.162593469460954
109	0.6095247747847728	3.2087061178901313	3.2087061178901313	-2.0451179258498997	3.2087061178901313
110	0.415219026922634	-3.5925745978152914	3.4272771404017606	-3.5925745978152914	3.5925745978152914
111	0.6727593632367623	3.785429581879816	3.785429581879816	-2.468805837778307	3.785429581879816
112	1.1693523242823385	3.5520145734332593	3.5520145734332593	-1.0620391600096912	3.5520145734332593
113	0.08686025500009871	-5.228853401397371	3.275951162256337	-5.228853401397371	5.228853401397371
114	0.41220762946718814	-4.830126596590407	2.7867618133324905	-4.830126596590407	4.830126596590407
115	1.1784593852968062	6.267964949294104	6.267964949294104	-3.9385333308787374	6.267964949294104
116	0.42885944803471243	3.411149067369323	3.411149067369323	-2.0211437958433756	3.411149067369323
117	-0.22821228126860785	-3.9607337990166425	2.6967945868540992	-3.9607337990166425	3.9607337990166425
118	0.6101870053420089	4.683028915375439	4.683028915375439	-4.052624214905361	4.683028915375439
119	1.0699654803271397	4.416834031287727	4.416834031287727	-2.549141846614613	4.416834031287727
120	1.4742937311506654	5.8024561561930925	5.8024561561930925	-3.2507526969841125	5.8024561561930925
121	0.5489354126987479	3.179848469681892	3.179848469681892	-3.1014644334504724	3.179848469681892
122	0.5113467745815132	3.9794151736700387	3.9794151736700387	-2.8793521811677234	3.9794151736700387
123	-0.18612629887666146	-4.530232449525845	2.559780089235577	-4.530232449525845	4.530232449525845
124	-0.6313533908459313	-5.247544551997672	3.818134400394853	-5.247544551997672	5.247544551997672
125	-0.8914829607974832	-4.469645909787769	2.7227330770972893	-4.469645909787769	4.469645909787769
126	0.00756121858140859	2.546727727980007	2.546727727980007	-1.4407866576021338	2.546727727980007
127	-0.3516768221472731	3.23934603950085	3.23934603950085	-2.426369407775872	3.23934603950085
128	0.0047754272450684304	-3.0440989465102013	2.2241913875130552	-3.0440989465102013	3.0440989465102013
129	-0.22159902191082526	-3.5049620358509563	2.7535945813769964	-3.5049620358509563	3.5049620358509563
130	0.3702489309304927	4.305377856466542	4.305377856466542	-3.8172326122789118	4.305377856466542
131	0.572775525148223	6.497348682095065	6.497348682095065	-3.3173090464709607	6.497348682095065
132	0.1594408772271282	-4.732097295152022	4.3848546267500925	-4.732097295152022	4.732097295152022
133	0.5326984055280877	5.886185860451327	5.886185860451327	-4.4907146182908	5.886185860451327
134	-0.7797643438196631	-4.280702418073242	2.6676587622266785	-4.280702418073242	4.280702418073242
135	-1.2895395939791467	-6.221362334268284	2.478341637202389	-6.221362334268284	6.221362334268284
136	-0.9910358490728789	-5.559526493150387	3.645548945792756	-5.559526493150387	5.559526493150387
137	-1.2921870068456531	7.616594775965076	7.616594775965076	-4.446370924548708	7.616594775965076
138	-0.5403655074385643	3.134409810292249	3.134409810292249	-2.927066954812997	3.134409810292249
139	-0.5986678859083183	-4.218364764776407	1.9931524774728617	-4.218364764776407	4.218364764776407
140	-1.2327741218162185	6.039700130497089	6.039700130497089	-4.963090117158124	6.039700130497089
141	0.42285710862956427	6.79993570508883	6.79993570508883	-3.623815589440412	6.79993570508883
142	-0.23791287418469112	6.600325197638977	6.600325197638977	-3.7208135755421035	6.600325197638977
143	-0.502655001705977	-4.671453115023584	3.0847806196835905	-4.671453115023584	4.671453115023584
144	-1.2412311680208095	-4.721850886049081	2.4701748647495556	-4.721850886049081	4.721850886049081
145	-1.9858415768110933	-6.967507855002305	2.6221124953254087	-6.967507855002305	6.967507855002305
146	0.42490390157020075	6.980874179187136	6.980874179187136	-5.712042313378088	6.980874179187136
147	-0.4679781581793837	-3.3432917448210717	2.506891319138095	-3.3432917448210717	3.3432917448210717
148	-1.2371459909293305	4.4130363881818155	4.4130363881818155	-4.086923898919559	4.4130363881818155
149	-0.14167083139107844	4.806047172426853	4.806047172426853	-4.370710678865395	4.806047172426853
150	1.5001185962953516	7.73504901002664	7.73504901002664	-4.086632202143172	7.73504901002664
151	-0.6928373358000035	-5.448656756818369	3.6257615739414755	-5.448656756818369	5.448656756818369
152	-0.15687498321165894	9.956210474954812	9.956210474954812	-5.199478602765648	9.956210474954812
153	-1.0146758981212627	-4.36254704604894	2.5278664151252506	-4.36254704604894	4.36254704604894
154	-0.5046009809152722	-4.5026141040680825	4.483537497585907	-4.5026141040680825	4.5026141040680825
155	-1.0394495721312111	-4.294142404935638	2.7417387559991115	-4.294142404935638	4.294142404935638
156	-1.8967770625343965	-7.112282665333694	1.9616129855870437	-7.112282665333694	7.112282665333694
157	-0.34973983705640865	-4.427328271886819	1.8230590176708468	-4.427328271886819	4.427328271886819
158	-0.24223681973125133	9.460424474462066	9.460424474462066	-4.4928461802999395	9.460424474462066
159	0.7873804583427333	5.288502506666953	5.288502506666953	-3.2462490319392217	5.288502506666953
160	-1.8369581093418166	-5.22771800670078	1.897991316449113	-5.22771800670078	5.22771800670078
161	-2.2524535587806755	-6.862172077936395	2.771678671944342	-6.862172077936395	6.862172077936395
162	-2.458553307500379	-7.4152868099488005	1.9360233414337624	-7.4152868099488005	7.4152868099488005
163	0.39198637230695615	-3.471890736368197	3.014718127343502	-3.471890736368197	3.471890736368197
164	-2.97229485134783	-7.71642900857422	2.171889091256237	-7.71642900857422	7.71642900857422
165	-1.0608909447711428	-4.447606271626003	1.2328020861418316	-4.447606271626003	4.447606271626003
166	0.7664482631639071	8.16503785779349	8.16503785779349	-3.06914292413853	8.16503785779349
167	0.20493978253132386	-3.581342369078337	2.611273350546358	-3.581342369078337	3.581342369078337
168	-0.8594375103878268	-4.468971776614701	2.8559743677631735	-4.468971776614701	4.468971776614701
169	-0.41079860206035684	-4.136083495033082	3.680658748311419	-4.136083495033082	4.136083495033082
170	-0.04532213929120775	-4.3153814858288815	2.6277423543262928	-4.3153814858288815	4.3153814858288815
171	-0.0781497152534434	-3.405862755422013	2.652293328942885	-3.405862755422013	3.405862755422013
172	-0.47043596784987696	-2.7250472357690074	2.386322568920133	-2.7250472357690074	2.7250472357690074
173	-0.6386397672550819	-3.620434220799511	2.6370671031865767	-3.620434220799511	3.620434220799511
174	0.2491333957042661	3.1514785041828466	3.1514785041828466	-2.47228216226978	3.1514785041828466
175	-0.055990638042172275	-4.06097193065879	2.995182411995391	-4.06097193065879	4.06097193065879
176	-0.2529546921101108	-5.436765999796294	3.248831585515537	-5.436765999796294	5.436765999796294
177	0.2986671849687551	3.601278000290432	3.601278000290432	-2.173567143291613	3.601278000290432
178	-0.4467645079097826	-3.8972473517207264	2.458721513574459	-3.8972473517207264	3.8972473517207264
179	-0.10211520782709974	-3.503853424880121	2.424768117107328	-3.503853424880121	3.503853424880121
180	0.824801236495274	-4.7543018953903236	3.668153171607822	-4.7543018953903236	4.7543018953903236
181	0.5162362109549876	-3.3618990094304997	3.1309524595671268	-3.3618990094304997	3.3618990094304997
182	-0.44300489735541415	-3.815880723689164	1.9088400278008106	-3.815880723689164	3.815880723689164
183	-0.5924226660419637	-5.172178507471817	3.2915336749129476	-5.172178507471817	5.172178507471817
184	0.29555585057743833	5.142539671086457	5.142539671086457	-2.8255695592422496	5.142539671086457
185	0.5085097723371101	3.0575485418447887	3.0575485418447887	-2.5769022907511547	3.0575485418447887
186	1.1326630821101618	4.604017863741305	4.604017863741305	-1.7664096118419514	4.604017863741305
187	0.31088184470980557	3.4132072097628696	3.4132072097628696	-2.4372587623491198	3.4132072097628696
188	0.5576922581843077	3.44388670439007	3.44388670439007	-3.0789914968704615	3.44388670439007
189	0.21489416702411196	-2.848972113176784	2.232161569990835	-2.848972113176784	2.848972113176784
190	-0.4421595225441403	-5.058044313367329	3.413855089355895	-5.058044313367329	5.058044313367329
191	0.4393107242012446	4.409945186743157	4.409945186743157	-2.7952706828829914	4.409945186743157
192	-1.1759199359183892	-3.8861799875815897	2.8857609709288754	-3.8861799875815897	3.8861799875815897
193	0.06611216858422281	3.008480526961075	3.008480526961075	-2.1457380623667963	3.008480526961075
194	0.7488430866373357	5.59100085250357	5.59100085250357	-2.9629860086511326	5.59100085250357
195	-1.3904588919961232	-3.8698342551680804	3.615613145191478	-3.8698342551680804	3.8698342551680804
196	0.09158548299593985	-3.939343631988213	3.0779906528486967	-3.939343631988213	3.939343631988213
197	0.4336404241737876	2.995288181751713	2.995288181751713	-1.7626726597731748	2.995288181751713
198	-0.5516108464145413	3.380174892055173	3.380174892055173	-3.335718618521762	3.380174892055173
199	-0.040462034096465156	4.382180428537599	4.382180428537599	-2.8512385201287587	4.382180428537599
200	-0.32354623530840354	-3.8499795352526647	3.6205762254621985	-3.8499795352526647	3.8499795352526647
201	-0.8448181506723794	-4.260667349579673	3.5557307646848635	-4.260667349579673	4.260667349579673
202	-1.247002684199656	-3.8548632564637293	2.4004741299844614	-3.8548632564637293	3.8548632564637293
203	0.7079354577178628	5.508324933410047	5.508324933410047	-3.429706481435762	5.508324933410047
204	0.7401988833671476	6.912285865094996	6.912285865094996	-4.3878796467751915	6.912285865094996
205	-1.1470973876501653	4.929780360491237	4.929780360491237	-4.5897342453185495	4.929780360491237
206	-0.14219506209226107	-3.5218480139424244	3.364308728720081	-3.5218480139424244	3.5218480139424244
207	0.6365690451846097	4.1757689142903915	4.1757689142903915	-2.7042951945547213	4.1757689142903915
208	-1.7192947268499579	-4.965912926267226	1.326261194337514	-4.965912926267226	4.965912926267226
209	-0.14757908796027952	6.938217513976239	6.938217513976239	-3.95288225731122	6.938217513976239
210	-0.6603313987547239	-4.123649790411785	3.2107964526646775	-4.123649790411785	4.123649790411785
211	0.06733639140479268	-4.244712465085362	3.195495903393633	-4.244712465085362	4.244712465085362
212	0.08469722025080029	2.3665749164606447	2.3665749164606447	-2.3408571589763536	2.3665749164606447
213	-0.351849972439809	-3.2945068574558443	2.567604897350576	-3.2945068574558443	3.2945068574558443
214	-0.2430617141485434	6.8734935053697175	6.8734935053697175	-4.0330209576703355	6.8734935053697175
215	-0.3862057087209453	4.118308260809546	4.118308260809546	-3.989692677038211	4.118308260809546
216	-1.3503813048493225	5.7760487624430485	5.7760487624430485	-3.991825174493472	5.7760487624430485
217	0.6570973355420705	5.018658602189076	5.018658602189076	-4.406810998073778	5.018658602189076
218	0.0431021437286014	5.21847806954566	5.21847806954566	-3.507270348214692	5.21847806954566
219	0.2473446354230032	2.156010258895863	2.156010258895863	-2.0583682980745346	2.156010258895863
220	-1.8632522285162498	-4.803043747838932	1.4304221482655435	-4.803043747838932	4.803043747838932
221	1.8014826716242	6.411378575572335	6.411378575572335	-3.5401378650866557	6.411378575572335
222	-0.4025967526593843	4.136826328685396	4.136826328685396	-2.644511234641971	4.136826328685396
223	2.4678036322888577	18.618670967878014	18.618670967878014	-2.632892495426406	18.618670967878014
224	-1.1913963775031162	-4.363712072931119	1.7571801492667005	-4.363712072931119	4.363712072931119
225	-0.964804000791879	-3.712785117107722	2.376846904722906	-3.712785117107722	3.712785117107722
226	-1.8862258146068873	-4.784584708761892	1.9190167026147824	-4.784584708761892	4.784584708761892
227	-0.9552566443264863	-3.681877170033128	1.6202461985606689	-3.681877170033128	3.681877170033128
228	2.2667858808549504	8.691538889007491	8.691538889007491	-2.8756724644597313	8.691538889007491
229	-1.4090221036258979	-4.840809566446203	2.7977914733207947	-4.840809566446203	4.840809566446203
230	1.859479440254208	8.068261585947877	8.068261585947877	-3.0884375734596925	8.068261585947877
231	-1.7740283751211758	-4.970343174022104	0.45274428069037514	-4.970343174022104	4.970343174022104
232	1.3069069713156953	6.401369069821545	6.401369069821545	-1.7344891223750507	6.401369069821545
233	0.08444241860238604	4.47925259699104	4.47925259699104	-3.7253240517181796	4.47925259699104
234	0.3360958613419302	4.446813693572799	4.446813693572799	-2.27732090544393	4.446813693572799
235	1.5844309238356087	3.9962525562674327	3.9962525562674327	-1.3034751814332601	3.9962525562674327
236	-1.2639713368806162	-6.343750596049028	2.7199812631027522	-6.343750596049028	6.343750596049028
237	-0.06348746600889309	5.405746981967849	5.405746981967849	-3.5898882666839986	5.405746981967849
238	-0.2652847053089918	3.6775383885865276	3.6775383885865276	-3.3386166881092443	3.6775383885865276
239	0.5471076270159978	6.7092274373879315	6.7092274373879315	-3.0995071931203713	6.7092274373879315
240	1.1418243562793695	4.923686810853719	4.923686810853719	-2.0963629021686594	4.923686810853719
241	0.34770829938434517	-5.343978052061029	5.0665931551575305	-5.343978052061029	5.343978052061029
242	-1.6300093042629158	-4.518636836824863	2.5945150977790026	-4.518636836824863	4.518636836824863
243	0.47080007534499696	-5.971088786749927	4.6131233119394315	-5.971088786749927	5.971088786749927
244	-1.6882892402611045	-4.490966908796195	1.9720285131374609	-4.490966908796195	4.490966908796195
245	-0.8205141515202022	-3.6535567739432047	1.691452917943605	-3.6535567739432047	3.6535567739432047
246	-2.069208079723382	-5.524343167742121	0.8635375152760226	-5.524343167742121	5.524343167742121
247	-0.4602310566468974	-2.677117076924778	2.2731441958716925	-2.677117076924778	2.677117076924778
248	-0.6574461567100902	-6.653085758557927	4.576202247109825	-6.653085758557927	6.653085758557927
249	-0.894590325854707	-3.482341197099084	2.268066078811377	-3.482341197099084	3.482341197099084
250	-0.33875179412728545	-7.296863805891915	4.634751083545486	-7.296863805891915	7.296863805891915
251	-1.2287524572096162	-4.798053478820889	1.188245166979129	-4.798053478820889	4.798053478820889
252	-0.7866055361440171	-4.421701740366009	2.9631246554950863	-4.421701740366009	4.421701740366009
253	0.02638353762225196	3.8145885195248646	3.8145885195248646	-3.0846790486642273	3.8145885195248646
254	-0.6835820764784023	11.739467054675217	11.739467054675217	-3.893676605848669	11.739467054675217
255	-0.7109527524409096	3.482408510945967	3.482408510945967	-2.917044253760971	3.482408510945967
256	-0.21063253641383164	3.6780510909351403	3.6780510909351403	-3.102058401138695	3.6780510909351403
257	-1.0802485195924267	-4.116392670000199	3.2760880595160047	-4.116392670000199	4.116392670000199
258	-0.2894165412651492	-3.5453337400296223	2.5366983848799163	-3.5453337400296223	3.5453337400296223
259	0.5223314872516464	4.113273636415345	4.113273636415345	-3.3682866436878234	4.113273636415345
260	1.53610093873985	5.338698617008382	5.338698617008382	-3.8597201529553202	5.338698617008382
261	0.08165297379024686	3.5687863772261292	3.5687863772261292	-3.166130288895833	3.5687863772261292
262	-1.231404609413259	-4.76344658823442	2.597724310774687	-4.76344658823442	4.76344658823442
263	-0.11282007196356947	-3.4829690133144906	3.020429631955393	-3.4829690133144906	3.4829690133144906
264	1.2922175652662744	4.823107304954217	4.823107304954217	-1.2189199425107076	4.823107304954217
265	0.6011161114673148	4.396120636635078	4.396120636635078	-2.7674790886312532	4.396120636635078
266	-0.2842824395702798	-4.128721182375212	3.1755698544335136	-4.128721182375212	4.128721182375212
267	-0.36178936745445073	-4.3541605961916385	3.452951106313142	-4.3541605961916385	4.3541605961916385
268	0.3471657959945372	2.607047998052784	2.607047998052784	-1.9907836790448867	2.607047998052784
269	-0.842292675811029	-3.9469045681504045	2.60314160910926	-3.9469045681504045	3.9469045681504045
270	-0.6077822467852455	-5.600280897191781	2.6449434574468302	-5.600280897191781	5.600280897191781
271	0.6434524785998322	2.6563609386031914	2.6563609386031914	-1.8275699747128213	2.6563609386031914
272	-1.7713974143249367	-5.40410385903583	1.2305247505046324	-5.40410385903583	5.40410385903583
273	0.43311515666640094	-3.765786974690517	3.6800472689825994	-3.765786974690517	3.765786974690517
274	-1.468328693438611	-4.3747918248595825	2.4154569727149098	-4.3747918248595825	4.3747918248595825
275	-0.5324892036813719	2.924130705195627	2.924130705195627	-2.912999581547547	2.924130705195627
276	-1.549374947064584	-6.9910176175234575	1.139279461588847	-6.9910176175234575	6.9910176175234575
277	1.604507134366812	4.056643663155203	4.056643663155203	-2.4175615822070595	4.056643663155203
278	0.9335058654730021	4.9849819654140575	4.9849819654140575	-3.4208900836543026	4.9849819654140575
279	-0.006746586951226962	2.801526208414427	2.801526208414427	-2.763677998989726	2.801526208414427
280	0.6824576691793699	4.839224703916975	4.839224703916975	-4.004277677848722	4.839224703916975
281	-0.11586251444195754	-3.182903733533269	2.6419850518337604	-3.182903733533269	3.182903733533269
282	-0.5118821018405786	-2.678451099414923	1.6490607788847271	-2.678451099414923	2.678451099414923
283	-0.6219068258399207	-4.717645348104487	4.001475140396867	-4.717645348104487	4.717645348104487
284	1.4666443922214334	4.7229892786334595	4.7229892786334595	-1.3275912284658489	4.7229892786334595
285	-0.4323704734559568	-5.161535544208749	2.8935529137225986	-5.161535544208749	5.161535544208749
286	-0.3275100754617956	3.759824725376362	3.759824725376362	-2.5635710994289123	3.759824725376362
287	-0.16325265911408346	-3.414893439537818	2.220193138309655	-3.414893439537818	3.414893439537818
288	1.082228094548933	4.156639816537742	4.156639816537742	-3.5292545103922306	4.156639816537742
289	0.3366487931373087	3.6136808766217747	3.6136808766217747	-2.6309928292467895	3.6136808766217747
290	0.3386177402787024	4.911683074634452	4.911683074634452	-2.2076731723831577	4.911683074634452
291	0.4951037244429954	-5.666553750905449	2.60353737960532	-5.666553750905449	5.666553750905449
292	0.6424319988485969	4.539473325282844	4.539473325282844	-3.1892500666646617	4.539473325282844
293	0.6383462040455908	4.531168868039324	4.531168868039324	-4.175754992235459	4.531168868039324
294	-0.03179866470215559	4.076726806408878	4.076726806408878	-3.9276288656216947	4.076726806408878
295	0.9423281453880618	4.169161903241278	4.169161903241278	-3.5239310128804893	4.169161903241278
296	0.15283285463311527	-3.4287664470744583	2.9156436567952793	-3.4287664470744583	3.4287664470744583
297	0.8445649400733641	5.221582064807918	5.221582064807918	-2.359842598789967	5.221582064807918
298	2.1725816131727784	3.7999688479938314	3.7999688479938314	-0.5575569776050711	3.7999688479938314
299	1.842409912627551	5.2598318294940025	5.2598318294940025	-2.024006669304068	5.2598318294940025
300	0.03350291553914153	3.8230275199718946	3.8230275199718946	-3.656592175179173	3.8230275199718946
301	0.5470725065240905	4.647205078449769	4.647205078449769	-2.667475661588038	4.647205078449769
302	1.5145959876576598	5.528150851380384	5.528150851380384	-5.1199737371091505	5.528150851380384
303	1.0693849783379619	3.798432536731727	3.798432536731727	-2.4590768550113036	3.798432536731727
304	-0.44077808557553805	-4.697919181083197	3.5217067233736152	-4.697919181083197	4.697919181083197
305	-0.6856247575782431	-5.643413186850159	2.9058178914365924	-5.643413186850159	5.643413186850159
306	-0.6971297774988495	4.137038864712716	4.137038864712716	-3.2094338822749875	4.137038864712716
307	-0.13226941560333183	-3.157528646518812	2.9975131319814503	-3.157528646518812	3.157528646518812
308	-0.3100464151829325	-3.4216543367635612	2.614309880661485	-3.4216543367635612	3.4216543367635612
309	0.6003352516649324	5.840522728440251	5.840522728440251	-3.3226592272898823	5.840522728440251
310	0.0925266724318319	-3.9559476564655127	3.3464477725371786	-3.9559476564655127	3.9559476564655127
311	-1.378634668368846	-4.3476799760309675	2.8993132589679607	-4.3476799760309675	4.3476799760309675
312	-0.4350827712396779	-6.244649282982438	3.9406371191108844	-6.244649282982438	6.244649282982438
313	0.4717675417341686	2.876915353153081	2.876915353153081	-2.1803642726500976	2.876915353153081
314	-0.3944437265963292	-4.083255675390114	2.054418334130257	-4.083255675390114	4.083255675390114
315	3.2526431073431894e-5	3.7130388670831245	3.7130388670831245	-3.015061353928368	3.7130388670831245
316	-0.4830262533008895	-4.858668138767547	3.973924610449718	-4.858668138767547	4.858668138767547
317	-1.3160130667348335	-5.181660356244174	2.248254496628696	-5.181660356244174	5.181660356244174
318	0.7156288662315369	4.243363285244176	4.243363285244176	-2.471082990647729	4.243363285244176
319	-0.010697630405459046	-3.622681629441201	2.61447480174247	-3.622681629441201	3.622681629441201
320	0.6696526304096967	4.640327148700894	4.640327148700894	-1.204712463151247	4.640327148700894
321	0.23362337457578472	3.7106037357439314	3.7106037357439314	-2.155418966084198	3.7106037357439314
322	-0.12413024451234926	2.942521289712417	2.942521289712417	-2.826833291633167	2.942521289712417
323	0.9516973057942422	3.578060187057023	3.578060187057023	-1.441602805098785	3.578060187057023
324	1.4647511077929993	3.14076303970905	3.14076303970905	-1.2243895838068286	3.14076303970905
325	-0.13022205952054497	-3.45155629978985	2.922075255018123	-3.45155629978985	3.45155629978985
326	-0.45478431808676073	-2.4758481583516203	1.8831773212030054	-2.4758481583516203	2.4758481583516203
327	0.6619818751223979	4.320895514893681	4.320895514893681	-2.736484165944129	4.320895514893681
328	0.8701601466263239	4.256579367426816	4.256579367426816	-1.6396335492493788	4.256579367426816
329	0.1082635129874897	2.835639358975888	2.835639358975888	-1.7307462919735217	2.835639358975888
330	0.13359579021192042	3.229882293082072	3.229882293082072	-2.820047221330535	3.229882293082072
331	-0.023595519208260102	-4.006380195353717	3.8765769881105356	-4.006380195353717	4.006380195353717
332	1.3243756886315148	3.8838314236569262	3.8838314236569262	-1.4793575534497323	3.8838314236569262
