pos	mean_pc2	extreme_pc2	max_pc2	min_pc2	max_abs_pc2
1	0.0150509138507393	-3.3729862567014015	2.61626296742009	-3.3729862567014015	3.3729862567014015
2	0.6540370805442047	3.362083864413728	3.362083864413728	-1.6665248082084303	3.362083864413728
3	0.7685028068674585	2.8501184279627236	2.8501184279627236	-2.162718995000989	2.8501184279627236
4	0.4347315211310012	2.6894850701916444	2.6894850701916444	-0.6421649050624966	2.6894850701916444
5	0.5937531297336247	2.9281673219456104	2.9281673219456104	-2.1422116740278696	2.9281673219456104
6	0.5491902780605633	2.506505266240168	2.506505266240168	-1.8636282494303422	2.506505266240168
7	0.35289775108667504	2.178291105283717	2.178291105283717	-2.0478318777312112	2.178291105283717
8	0.8629413761503419	2.4135793596683217	2.4135793596683217	-1.247254111479636	2.4135793596683217
9	0.7457407039741906	2.8950672499566044	2.8950672499566044	-1.5803131157552757	2.8950672499566044
10	1.0045753576501717	4.520673707461031	4.520673707461031	-2.873441948330817	4.520673707461031
11	0.589487200883035	3.9904439095387367	3.9904439095387367	-1.0342505513129634	3.9904439095387367
12	1.0512435153863626	4.096648077390907	4.096648077390907	-1.2064154688620585	4.096648077390907
13	0.5370097596813419	3.617992652550087	3.617992652550087	-2.2557100573203646	3.617992652550087
14	0.6682516746538522	2.437317641815666	2.437317641815666	-1.4656372014683392	2.437317641815666
15	1.1284078111001339	4.4531521509293555	4.4531521509293555	-1.4599045140431044	4.4531521509293555
16	0.18148515181371142	3.3575867363684573	3.3575867363684573	-3.1473737885046558	3.3575867363684573
17	0.7154018814836774	-3.4893866066303914	3.266224080369825	-3.4893866066303914	3.4893866066303914
18	0.45976938951851637	4.964784811877856	4.964784811877856	-1.9840313539266397	4.964784811877856
19	1.50343436623566	4.4986568873652395	4.4986568873652395	-1.07081859804835	4.4986568873652395
20	0.46120416037171325	2.342811577200849	2.342811577200849	-2.323072753587891	2.342811577200849
21	0.8095475417052282	6.090776152103184	6.090776152103184	-3.3456965266383243	6.090776152103184
22	-0.15816372620962194	-3.3489293798688764	2.2254586573877795	-3.3489293798688764	3.3489293798688764
23	1.3943582959268837	3.7725256616908656	3.7725256616908656	-1.5032591293419617	3.7725256616908656
24	1.2395417774636028	5.660361153448441	5.660361153448441	-1.0413377030816595	5.660361153448441
25	1.004338458432376	3.4636464320339755	3.4636464320339755	-1.6986518206901353	3.4636464320339755
26	0.9824296061077976	3.957971838801622	3.957971838801622	-2.490138182472229	3.957971838801622
27	0.7915395735575278	4.514184102496777	4.514184102496777	-2.358863090970461	4.514184102496777
28	0.41537759434910765	2.621773852316128	2.621773852316128	-2.421418861326944	2.621773852316128
29	0.26256865972847376	3.0363778357117392	3.0363778357117392	-1.4303812866877321	3.0363778357117392
30	0.6990993641172848	2.9276160814225607	2.9276160814225607	-1.9607695415206137	2.9276160814225607
31	1.0475098558420977	4.159925273375923	4.159925273375923	-1.451089596842802	4.159925273375923
32	0.7060451731420622	3.6891822975430344	3.6891822975430344	-1.7136316424368683	3.6891822975430344
33	0.8071674384546297	5.110442223417888	5.110442223417888	-1.8666729444571208	5.110442223417888
34	0.7396704082863559	4.189392093967916	4.189392093967916	-2.9270674549260765	4.189392093967916
35	1.0589919350861297	4.611188723321719	4.611188723321719	-0.8545165629993107	4.611188723321719
36	0.6081103130781492	3.431467634871863	3.431467634871863	-1.1792078288608154	3.431467634871863
37	0.40882735836006656	2.7673093077009154	2.7673093077009154	-1.4252381307672835	2.7673093077009154
38	0.4744120556491974	3.5169630968394467	3.5169630968394467	-2.891639381840582	3.5169630968394467
39	0.4008235080643693	5.354638458878286	5.354638458878286	-2.1621713127010804	5.354638458878286
40	-1.3152641827239453	-5.055351659715652	1.4333532934849333	-5.055351659715652	5.055351659715652
41	1.1291515931034255	3.7076216717675465	3.7076216717675465	-1.694953946644813	3.7076216717675465
42	-0.294994617278099	3.664928527202363	3.664928527202363	-2.973130597474375	3.664928527202363
43	-1.1078050434433584	-3.9728920424944034	2.0871051579426316	-3.9728920424944034	3.9728920424944034
44	-0.47431680968537604	-4.62512059790816	3.9159702614142335	-4.62512059790816	4.62512059790816
45	0.679561151468956	3.8195891379249782	3.8195891379249782	-1.932665311418471	3.8195891379249782
46	-1.1234557144317467	-4.338878453777152	2.642521560890294	-4.338878453777152	4.338878453777152
47	0.46736118715344893	4.047137411057906	4.047137411057906	-2.5024108482136525	4.047137411057906
48	-0.9643428450751605	-5.253787634518733	2.7456708760944326	-5.253787634518733	5.253787634518733
49	0.34738568766881606	4.322002421356755	4.322002421356755	-3.722756253880738	4.322002421356755
50	0.16350690620662636	7.382351785050264	7.382351785050264	-3.567916394564276	7.382351785050264
51	1.4714663730036341	4.102409658137439	4.102409658137439	-2.210640519501076	4.102409658137439
52	0.19891956155204443	-6.270567880672929	3.857144463199932	-6.270567880672929	6.270567880672929
53	0.9577034966930604	4.504748224093492	4.504748224093492	-1.4243666722185124	4.504748224093492
54	-0.7519557522902415	-5.578363685234688	3.9243292207434335	-5.578363685234688	5.578363685234688
55	-0.012576519539897035	3.557633973773912	3.557633973773912	-1.9643754284933166	3.557633973773912
56	-0.006221841371263012	-3.8715770353482073	3.3059625236655634	-3.8715770353482073	3.8715770353482073
57	-0.05863004500801572	5.2234536677965	5.2234536677965	-3.9801872607897764	5.2234536677965
58	0.33953340151363526	6.767902138767022	6.767902138767022	-2.4515514772389113	6.767902138767022
59	0.2515127679037194	-3.7103061151665653	3.0449508961466907	-3.7103061151665653	3.7103061151665653
60	-0.46889665683514037	-5.4055065770172055	2.073901744271023	-5.4055065770172055	5.4055065770172055
61	-1.4281219317120852	-5.474733613587595	1.788839522324381	-5.474733613587595	5.474733613587595
62	-0.0587070772074749	-3.0285464773495643	1.7254086806701283	-3.0285464773495643	3.0285464773495643
63	0.3084783835943369	2.842695194676817	2.842695194676817	-1.9378610865707435	2.842695194676817
64	-1.0281712638057263	-4.586005681965313	2.4458944977103196	-4.586005681965313	4.586005681965313
65	0.22611040919680375	-6.116135752549649	4.104305500106059	-6.116135752549649	6.116135752549649
66	-0.43249488267124486	-3.1246558857834943	2.1113230088970787	-3.1246558857834943	3.1246558857834943
67	-0.29859425141397605	-3.875696888586114	3.309665430753963	-3.875696888586114	3.875696888586114
68	-0.8898179940323079	-3.951820539124031	3.782164883493318	-3.951820539124031	3.951820539124031
69	0.7639842628046464	4.3374647671918956	4.3374647671918956	-2.440403174758384	4.3374647671918956
70	-0.19861541313184014	-2.8338396323129547	1.661197949208609	-2.8338396323129547	2.8338396323129547
71	-0.9904136777121596	-4.755415775990175	1.5105020691540285	-4.755415775990175	4.755415775990175
72	-0.8048493029018026	-3.722987704675134	2.6485573762897165	-3.722987704675134	3.722987704675134
73	-1.0609748494313997	-4.707596775706875	1.5615512042819084	-4.707596775706875	4.707596775706875
74	-0.3359157603941984	4.9166543292058424	4.9166543292058424	-3.9338096552726247	4.9166543292058424
75	-0.30211951764689327	-3.272688188473879	1.2387361948257933	-3.272688188473879	3.272688188473879
76	-1.0113223835403837	-3.3333449092646488	1.2545158980112676	-3.3333449092646488	3.3333449092646488
77	1.2670436189675207	9.362233439718494	9.362233439718494	-1.4165493264023041	9.362233439718494
78	-1.2046659226691885	-4.712054586722526	1.7296912356416112	-4.712054586722526	4.712054586722526
79	2.675523948391465	12.281016398649296	12.281016398649296	-1.0490340723058047	12.281016398649296
80	-1.6824090194371413	5.542594248697223	5.542594248697223	-4.900186132331053	5.542594248697223
81	-0.8261613451797138	-2.7190872254114167	1.4860287111988117	-2.7190872254114167	2.7190872254114167
82	-0.8952822398534391	-5.113942758706929	2.872450519307923	-5.113942758706929	5.113942758706929
83	-1.131386261419303	-5.014760994424272	2.8585704435193366	-5.014760994424272	5.014760994424272
84	-0.6276785770790471	4.379165968074507	4.379165968074507	-3.982722495698536	4.379165968074507
85	0.5564502949230791	4.115044067771417	4.115044067771417	-2.5277002265300297	4.115044067771417
86	-1.1169585036191327	-6.205635767920392	3.176932365765479	-6.205635767920392	6.205635767920392
87	-0.31553154106616754	-3.9509724953396455	2.0266705710495634	-3.9509724953396455	3.9509724953396455
88	-0.931515163630955	-4.600443048711571	2.392656518284353	-4.600443048711571	4.600443048711571
89	0.6476235087058411	-4.568290516781759	3.9892820858292874	-4.568290516781759	4.568290516781759
90	0.9409339018762789	3.161206649443225	3.161206649443225	-1.718143747526452	3.161206649443225
91	-0.02175775293592459	-4.67295118460378	2.326149745940177	-4.67295118460378	4.67295118460378
92	-0.8537196319696055	-7.123483012140888	4.683109074008396	-7.123483012140888	7.123483012140888
93	-1.2186532190205321	-3.8354943106114168	2.5024430940511384	-3.8354943106114168	3.8354943106114168
94	0.7499011457311617	6.5494250014199675	6.5494250014199675	-1.2114827788548486	6.5494250014199675
95	-0.23926063536785871	-2.9180276337885913	2.411537445353831	-2.9180276337885913	2.9180276337885913
96	-0.19351725608764797	-5.005032079223207	3.132423729509655	-5.005032079223207	5.005032079223207
97	0.7921072643102517	4.041815216517932	4.041815216517932	-3.35927138601286	4.041815216517932
98	0.7451206189574898	4.705467344054973	4.705467344054973	-2.5743937559071126	4.705467344054973
99	1.6520519011597101	4.64089462164071	4.64089462164071	-1.9156458103231873	4.64089462164071
100	0.43531780205264725	3.999756105737402	3.999756105737402	-2.2594360211685416	3.999756105737402
101	0.2502187541113416	-3.5142870554385537	3.4985445830548327	-3.5142870554385537	3.5142870554385537
102	-0.25125348722147484	4.710594922648322	4.710594922648322	-3.86899654472875	4.710594922648322
103	0.5828341759848965	3.5916141803774266	3.5916141803774266	-3.269735508271252	3.5916141803774266
104	0.38324225094294156	2.7868830191717477	2.7868830191717477	-1.8582258570796593	2.7868830191717477
105	1.6629179971843508	5.2989750259272	5.2989750259272	-1.5337287533412511	5.2989750259272
106	-1.4436090800601813	-6.511896092371412	2.422105320611382	-6.511896092371412	6.511896092371412
107	-1.7871867501903702	-6.581120851907889	1.8844606622085622	-6.581120851907889	6.581120851907889
108	-0.20748802775438352	-5.1092597892952165	4.2497479243206815	-5.1092597892952165	5.1092597892952165
109	0.5293293649494138	2.729765210583166	2.729765210583166	-1.769700265317502	2.729765210583166
110	0.6298809061589249	3.4012617173429702	3.4012617173429702	-3.045254732972768	3.4012617173429702
111	0.5581034183105169	2.8266575191770706	2.8266575191770706	-2.4169984469671184	2.8266575191770706
112	1.1954219750812656	4.764662387178464	4.764662387178464	-1.3786698516957676	4.764662387178464
113	0.20576940513247716	-4.788894853585312	2.744064344566492	-4.788894853585312	4.788894853585312
114	0.36057948674177276	-4.029677125979655	2.966146145107005	-4.029677125979655	4.029677125979655
115	0.9915071299180989	5.502313637552092	5.502313637552092	-3.329489225686183	5.502313637552092
116	0.5011858047844281	3.9133131994419275	3.9133131994419275	-1.8098061234149219	3.9133131994419275
117	-0.22753266152942636	-3.3717703897821845	2.0386297567174436	-3.3717703897821845	3.3717703897821845
118	0.5212044150785755	4.850845851127712	4.850845851127712	-4.061700584281566	4.850845851127712
119	1.0504002446648781	4.766210976458667	4.766210976458667	-2.7732294420437094	4.766210976458667
120	1.3585340709009135	6.56000084748199	6.56000084748199	-2.4093008406013117	6.56000084748199
121	0.41082714056201225	4.062265976879402	4.062265976879402	-3.5581334378718252	4.062265976879402
122	0.5463300894508396	3.3983632766931624	3.3983632766931624	-2.7456396049958607	3.3983632766931624
123	-0.1751486650330411	-4.089774120458955	2.285385739502471	-4.089774120458955	4.089774120458955
124	-0.6315902236721536	-6.0454143401163165	3.5837762256055896	-6.0454143401163165	6.0454143401163165
125	-0.671945549251399	-5.165585521324678	2.546249111428072	-5.165585521324678	5.165585521324678
126	0.689730511446186	3.4462756287880163	3.4462756287880163	-2.2330388728809734	3.4462756287880163
127	-0.32474671362779317	3.132231088591451	3.132231088591451	-2.8309237511333722	3.132231088591451
128	0.4466875798605935	-3.5609885358270974	3.152107512881125	-3.5609885358270974	3.5609885358270974
129	-0.1759065289498067	3.4834036055512336	3.4834036055512336	-2.643244025110991	3.4834036055512336
130	0.28088942062166433	-4.595434857681319	4.29442421449368	-4.595434857681319	4.595434857681319
131	0.8067216608882647	6.828108318186829	6.828108318186829	-2.8826804559289165	6.828108318186829
132	0.24337552680229393	-4.994986297064779	4.8260688541716465	-4.994986297064779	4.994986297064779
133	0.6543312706242077	5.994574801431074	5.994574801431074	-4.03552485245433	5.994574801431074
134	-0.8311599714565648	-3.33052222199091	2.4876136158913122	-3.33052222199091	3.33052222199091
135	-0.8567216367110578	-6.928743677261501	2.8720011340552265	-6.928743677261501	6.928743677261501
136	-0.8410394150354659	-5.771214770499575	3.2243715959457395	-5.771214770499575	5.771214770499575
137	-0.95783016861963155	8.300969367323244	8.300969367323244	-4.479889739786977	8.300969367323244
138	-0.3022763512656098	2.655167620979283	2.655167620979283	-2.6291040020043828	2.655167620979283
139	-0.4679473761430937	-4.909699032152172	1.8732042624338094	-4.909699032152172	4.909699032152172
140	-1.3164090355945723	-5.881975967017095	5.823299379473563	-5.881975967017095	5.881975967017095
141	0.5468603375915918	7.088795531900616	7.088795531900616	-2.8698991874410384	7.088795531900616
142	-0.11745594069068527	6.754049829162756	6.754049829162756	-4.149924888671368	6.754049829162756
143	-0.6700260338485678	-4.8067131195473625	3.205008511619165	-4.8067131195473625	4.8067131195473625
144	-0.8153008705491012	-4.847047389454937	2.8592421579275187	-4.847047389454937	4.847047389454937
145	-1.9827608209401923	-8.066427807398005	2.3571234038966606	-8.066427807398005	8.066427807398005
146	-0.2091617458079022	-6.180324276740532	4.883658880942232	-6.180324276740532	6.180324276740532
147	-0.7139304133096369	-3.7568554107062515	1.551214878528994	-3.7568554107062515	3.7568554107062515
148	-1.6533458904177485	-4.964916550406833	2.3512561119721043	-4.964916550406833	4.964916550406833
149	0.2963631706791854	5.4515752660126875	5.4515752660126875	-3.247577851048802	5.4515752660126875
150	1.6307021840380458	8.93139036923484	8.93139036923484	-2.43005127264519	8.93139036923484
151	-0.5268030107311801	-6.27384609757101	4.321868309430117	-6.27384609757101	6.27384609757101
152	-0.10883834466377314	11.024334927310807	11.024334927310807	-5.02146320131489	11.024334927310807
153	-1.235780593468531	-5.19868220413104	2.7232433117915775	-5.19868220413104	5.19868220413104
154	-0.4790243940419139	5.4209350456013	5.4209350456013	-5.098796872155002	5.4209350456013
155	-1.098192019430828	-5.369454894831026	3.32104761843335	-5.369454894831026	5.369454894831026
156	-2.0286464882374275	-8.558379558867916	1.3635095230471084	-8.558379558867916	8.558379558867916
157	-0.5065058985070177	-3.950707263142564	1.2084447868371602	-3.950707263142564	3.950707263142564
158	-0.04717896430121766	10.48348049636636	10.48348049636636	-4.516926133272364	10.48348049636636
159	0.8675195699975718	6.2168655844677945	6.2168655844677945	-3.013151757453545	6.2168655844677945
160	-1.660366127248044	-5.6938646184961605	2.3005745611580486	-5.6938646184961605	5.6938646184961605
161	-2.0109691981379703	-7.058251139891308	2.8601292441714694	-7.058251139891308	7.058251139891308
162	-1.8402580326037776	-6.552806209062632	2.7218440935004127	-6.552806209062632	6.552806209062632
163	0.267083163561092	-3.9496978786304906	3.653294669410943	-3.9496978786304906	3.9496978786304906
164	-2.817657440587283	-8.374225352224526	3.077688802466319	-8.374225352224526	8.374225352224526
165	-0.8096176543518713	-5.415769625115797	1.6997140727271747	-5.415769625115797	5.415769625115797
166	1.1922874273918795	8.003224337297242	8.003224337297242	-2.494330941032257	8.003224337297242
167	0.1879207694117893	-3.4463385720243114	2.52764566276103	-3.4463385720243114	3.4463385720243114
168	-0.965526075650898	-4.341775301651557	2.3682546508755595	-4.341775301651557	4.341775301651557
169	-0.4379288402912151	-4.453534461056851	3.8250937837254386	-4.453534461056851	4.453534461056851
170	-0.20442370116255498	-4.3758293553957754	2.767978124129543	-4.3758293553957754	4.3758293553957754
171	-0.10714173713652464	-3.42310728534831	2.6162674242628876	-3.42310728534831	3.42310728534831
172	-0.44599961585749537	-2.9011541596370725	2.3334432664420266	-2.9011541596370725	2.9011541596370725
173	-0.6465484426822844	-3.839375608534504	2.8053784944307396	-3.839375608534504	3.839375608534504
174	0.06060166597716479	-3.098463669423917	3.0466561311668223	-3.098463669423917	3.098463669423917
175	-0.05732224054851374	-3.9877708652464072	3.0235659212569024	-3.9877708652464072	3.9877708652464072
176	-0.30003860306291047	-5.300020743777552	3.3029765272267957	-5.300020743777552	5.300020743777552
177	0.11436086481658105	3.329701493511695	3.329701493511695	-2.5033399399728222	3.329701493511695
178	-0.40312782054231233	-3.683760930247326	2.635654440572082	-3.683760930247326	3.683760930247326
179	-0.1421129894238906	-3.4427215148322627	2.459084247189583	-3.4427215148322627	3.4427215148322627
180	0.7769748295246317	-4.754920840121916	3.6311136628338345	-4.754920840121916	4.754920840121916
181	0.34985097198119464	-3.680718005369544	3.135544999079161	-3.680718005369544	3.680718005369544
182	-0.5091744202798442	-3.9841829898809737	1.6483573654285033	-3.9841829898809737	3.9841829898809737
183	-0.6188918906336542	-5.168572715165112	3.3355722911367987	-5.168572715165112	5.168572715165112
184	0.29378400121385856	5.119181687829521	5.119181687829521	-2.5693880301614787	5.119181687829521
185	0.2778959472374925	2.884332144884736	2.884332144884736	-2.673067195600042	2.884332144884736
186	1.025646435603754	4.291995699993971	4.291995699993971	-1.9122079954264057	4.291995699993971
187	0.10489761652337116	3.1831372738911012	3.1831372738911012	-2.4644816932312326	3.1831372738911012
188	0.48658508680555296	3.364464030531319	3.364464030531319	-3.092339902293793	3.364464030531319
189	0.14961115891182736	-2.8762208716193545	2.184581028415302	-2.8762208716193545	2.8762208716193545
190	-0.5215408949097118	-5.244188419257678	3.5435378247526086	-5.244188419257678	5.244188419257678
191	0.3580240948421104	4.249221062470312	4.249221062470312	-2.6774550860230186	4.249221062470312
192	-1.1674475125322246	-3.9431451177159094	2.9465749728851893	-3.9431451177159094	3.9431451177159094
193	-0.03830725199597519	2.870239237222855	2.870239237222855	-2.2299291133490735	2.870239237222855
194	0.7554934237105119	5.464787334499882	5.464787334499882	-2.973106555920401	5.464787334499882
195	-1.5006365247319509	-4.151176101828849	3.722874792113496	-4.151176101828849	4.151176101828849
196	0.02605085420976791	-3.8176718414010713	3.1463761868826547	-3.8176718414010713	3.8176718414010713
197	0.4769524794433497	2.892501711499565	2.892501711499565	-1.7582389206418578	2.892501711499565
198	-0.6548052430758732	-3.8335070432867804	3.1820917609246053	-3.8335070432867804	3.8335070432867804
199	-0.04591510175712295	4.642080003306315	4.642080003306315	-3.019698598712953	4.642080003306315
200	-0.19182804654235966	-3.752885422311068	3.668742808325999	-3.752885422311068	3.752885422311068
201	-0.9285020041499679	-4.31987991849806	3.681659563801624	-4.31987991849806	4.31987991849806
202	-1.2958859511281173	-4.1189146055125345	2.150931467469605	-4.1189146055125345	4.1189146055125345
203	0.651264407632113	5.749627578184607	5.749627578184607	-3.6951197923063064	5.749627578184607
204	0.7807929798697971	7.668779264045347	7.668779264045347	-4.65297185815908	7.668779264045347
205	-1.1019612676133752	5.048061125675168	5.048061125675168	-4.5009026927660845	5.048061125675168
206	-0.1771535164687185	3.43498607327433	3.43498607327433	-3.2918731011266247	3.43498607327433
207	0.5749846381653801	3.7235651830614276	3.7235651830614276	-2.976342861809508	3.7235651830614276
208	-1.753376396806384	-4.930323485121246	1.3684341211710451	-4.930323485121246	4.930323485121246
209	-0.19055758139652273	7.147333828627137	7.147333828627137	-3.8885610683577063	7.147333828627137
210	-0.7106408525950616	-4.161434522768696	3.2594851647030905	-4.161434522768696	4.161434522768696
211	-0.0037064374387746845	-4.316675090557263	3.117934051671118	-4.316675090557263	4.316675090557263
212	0.0219843671763873	-2.3026329683998523	2.2247542635307953	-2.3026329683998523	2.3026329683998523
213	-0.36312885700843806	-3.4558351167434735	2.5392066705955276	-3.4558351167434735	3.4558351167434735
214	-0.366881693073102	6.4980258842976335	6.4980258842976335	-4.254090398581149	6.4980258842976335
215	-0.4227669912746833	4.105227446219968	4.105227446219968	-3.8747434524907116	4.105227446219968
216	-1.4783114862385227	5.886711081377526	5.886711081377526	-4.074207234834322	5.886711081377526
217	0.6014764993815996	-4.770165853304322	4.727338090899708	-4.770165853304322	4.770165853304322
218	-0.030318150831661228	4.920125038728483	4.920125038728483	-3.6289536785954692	4.920125038728483
219	0.18390487204562816	-2.1234747892164476	1.919818383201117	-2.1234747892164476	2.1234747892164476
220	-1.994951683769911	-5.103515881050793	1.1226542764558447	-5.103515881050793	5.103515881050793
221	1.69906966823568	6.348478438486504	6.348478438486504	-3.7854106932009626	6.348478438486504
222	-0.1696269707333312	4.0065585751732185	4.0065585751732185	-2.208259156348263	4.0065585751732185
223	1.5481611834610118	19.048273048052188	19.048273048052188	-2.6053899438750197	19.048273048052188
224	-1.0404756390857526	-4.309659816778978	1.973519756911334	-4.309659816778978	4.309659816778978
225	-0.7843905081428618	-3.2243556489276766	1.5094994151640635	-3.2243556489276766	3.2243556489276766
226	-1.5824087112991174	-5.449048440908483	2.5150131679959538	-5.449048440908483	5.449048440908483
227	-0.7807845263328751	-4.248454173293217	1.7237621357509536	-4.248454173293217	4.248454173293217
228	2.1046534921431816	9.810668586518826	9.810668586518826	-2.9710239839920956	9.810668586518826
229	-1.5625176623679062	-5.497016065206133	2.0849738798877557	-5.497016065206133	5.497016065206133
230	1.5320671374981603	8.503165829585189	8.503165829585189	-2.6387107292244116	8.503165829585189
231	-1.5257724452533774	-4.88772636663261	0.4334244512627025	-4.88772636663261	4.88772636663261
232	0.8840769657507199	5.738814922422821	5.738814922422821	-2.2481371519746274	5.738814922422821
233	0.05280913813657393	5.290105989064782	5.290105989064782	-3.9938690024281605	5.290105989064782
234	0.41827721433918114	5.203004020715153	5.203004020715153	-2.1995728467552014	5.203004020715153
235	1.362813148360773	4.537585907940726	4.537585907940726	-1.4026245312395207	4.537585907940726
236	-1.1380203051659887	-4.640963497355126	2.7442507201972632	-4.640963497355126	4.640963497355126
237	-0.02243521518797516	5.864249607291944	5.864249607291944	-3.36913471001477	5.864249607291944
238	-0.0877160297067428	4.008737062995524	4.008737062995524	-3.54113130367228	4.008737062995524
239	0.4403126586657816	5.786924412425344	5.786924412425344	-2.7200422408163116	5.786924412425344
240	0.8803835923684711	5.475249107989205	5.475249107989205	-1.815920290553131	5.475249107989205
241	0.3099489183902314	-5.499604202693484	5.418021127635122	-5.499604202693484	5.499604202693484
242	-1.6122850569163818	-5.307734407028059	3.4291153295508776	-5.307734407028059	5.307734407028059
243	0.5474358512414538	-6.103116373646786	5.107884386269181	-6.103116373646786	6.103116373646786
244	-1.6825485031537073	-4.775924810789521	1.0489308271301572	-4.775924810789521	4.775924810789521
245	-0.6678931852002712	-3.9145136129004756	2.0924404627138258	-3.9145136129004756	3.9145136129004756
246	-1.8849625043041427	-5.86430370190526	1.0408899132402811	-5.86430370190526	5.86430370190526
247	-0.4338410400811671	-2.178846186150034	2.1181063612304003	-2.178846186150034	2.178846186150034
248	-0.7289448913379827	-7.236640189261815	3.5066262759431863	-7.236640189261815	7.236640189261815
249	-0.6132341374543178	-3.014065436214161	2.785682041789602	-3.014065436214161	3.014065436214161
250	-0.414840578380458	-7.817128033918316	4.292462719597606	-7.817128033918316	7.817128033918316
251	-1.0634095192152027	-4.890133719617016	1.2910920718661374	-4.890133719617016	4.890133719617016
252	-0.8191195021968388	-5.406517167665884	2.901994789140016	-5.406517167665884	5.406517167665884
253	0.22554712485865627	4.363334379064084	4.363334379064084	-2.395851019100599	4.363334379064084
254	-0.31332997137993096	12.054773648879447	12.054773648879447	-4.041096602209816	12.054773648879447
255	-0.4345400989879053	3.704213361330423	3.704213361330423	-2.883670258457794	3.704213361330423
256	-0.28559658059539095	-4.11342422297582	2.7216906578235913	-4.11342422297582	4.11342422297582
257	-1.0655236451861256	-4.335458586591317	2.8478010093275836	-4.335458586591317	4.335458586591317
258	-0.4115083429140595	-3.8918841794249843	2.81588399967844	-3.8918841794249843	3.8918841794249843
259	0.48686546435812317	4.04631444507796	4.04631444507796	-1.8911106553861856	4.04631444507796
260	1.4067041434918877	5.617502713472723	5.617502713472723	-4.362215155982742	5.617502713472723
261	0.24384234960768522	3.5083167349135223	3.5083167349135223	-3.2478573976528224	3.5083167349135223
262	-0.9612757618389292	-4.907575544763764	3.1525942178651865	-4.907575544763764	4.907575544763764
263	-0.16124673105536103	-3.999308741578943	3.1002023033636967	-3.999308741578943	3.999308741578943
264	1.1179505257601872	4.474291054371604	4.474291054371604	-0.7581457970969834	4.474291054371604
265	0.5782918161164575	3.9460378993780694	3.9460378993780694	-2.458308883648571	3.9460378993780694
266	-0.21033633955188982	-4.170721864843361	2.662282308955323	-4.170721864843361	4.170721864843361
267	-0.4042877491929247	-4.722125505736783	2.8672650451862465	-4.722125505736783	4.722125505736783
268	0.43965121639693977	2.6116951573608023	2.6116951573608023	-1.6275681520184224	2.6116951573608023
269	-0.9588121239078389	-4.666693992845109	2.2764156362164547	-4.666693992845109	4.666693992845109
270	-0.50074154185902775	-6.04908374304336	2.600312822287674	-6.04908374304336	6.04908374304336
271	0.8332905512122998	2.8924172359829643	2.8924172359829643	-2.2304720326203458	2.8924172359829643
272	-1.7119899924237976	-4.949958768891636	0.7017461939690192	-4.949958768891636	4.949958768891636
273	0.27007030531422144	3.8208243820754304	3.8208243820754304	-2.8572327846542347	3.8208243820754304
274	-1.5312634601693231	-4.871000804397504	2.2621900305338154	-4.871000804397504	4.871000804397504
275	-0.6298458146421158	-3.04347456012529	2.390578298697412	-3.04347456012529	3.04347456012529
276	-1.4771716054338975	-7.034644314897468	1.541951750520504	-7.034644314897468	7.034644314897468
277	1.5061867572837	3.7646115413671635	3.7646115413671635	-3.067486853609724	3.7646115413671635
278	0.7562304084756976	4.808140108192664	4.808140108192664	-3.5323242347495074	4.808140108192664
279	0.0693104974038376	3.3001164181315077	3.3001164181315077	-2.2919513173120056	3.3001164181315077
280	0.7890011991026477	4.88823409555059	4.88823409555059	-4.330838473710367	4.88823409555059
281	0.055568403540240674	-2.9160882287243184	2.5417986445018363	-2.9160882287243184	2.9160882287243184
282	-0.5677469440038516	-2.3878575268013535	1.4025622787668324	-2.3878575268013535	2.3878575268013535
283	-0.5726179648790474	-4.95619797462861	4.436345428060184	-4.95619797462861	4.95619797462861
284	1.5448007456740867	4.066855258886982	4.066855258886982	-2.3000708130972654	4.066855258886982
285	-0.5409501459025836	-5.9753350190058185	2.85076867061761	-5.9753350190058185	5.9753350190058185
286	-0.2952394844712874	3.36842464490813	3.36842464490813	-2.982402141387538	3.36842464490813
287	0.02948060675779247	3.182834336968831	3.182834336968831	-2.624137953565559	3.182834336968831
288	1.1645366406082176	4.370193655058588	4.370193655058588	-3.2104233543786425	4.370193655058588
289	0.5902590207428512	3.9311204892799547	3.9311204892799547	-2.9386055150740003	3.9311204892799547
290	0.58557850011116	4.6111469052720775	4.6111469052720775	-2.1045397007255966	4.6111469052720775
291	0.8501157205096844	-5.567328657875806	3.1751500535108548	-5.567328657875806	5.567328657875806
292	0.8931756534529842	4.658155668403877	4.658155668403877	-2.2379166898813807	4.658155668403877
293	0.8766201885616648	-3.9878025825178662	3.911047850143353	-3.9878025825178662	3.9878025825178662
294	0.12538678824693952	4.342157336370598	4.342157336370598	-3.570379086579452	4.342157336370598
295	1.0564525429620806	4.158646405626731	4.158646405626731	-3.8148467602613403	4.158646405626731
296	0.17310132427274266	-3.9583325270777507	2.8786543961814832	-3.9583325270777507	3.9583325270777507
297	1.1595003948172653	4.614681999172533	4.614681999172533	-2.253987784956543	4.614681999172533
298	2.542438537118693	4.171526883143337	4.171526883143337	-0.6618898544846034	4.171526883143337
299	1.7564080516201162	4.912875795962841	4.912875795962841	-1.7755327747480456	4.912875795962841
300	0.12044080193556407	-4.081603657677382	3.962961536365616	-4.081603657677382	4.081603657677382
301	0.5496449795737812	4.4160021193306385	4.4160021193306385	-3.1141440777907095	4.4160021193306385
302	1.573047837774825	5.514391919969956	5.514391919969956	-4.652227653029178	5.514391919969956
303	1.3723212756808827	4.562161206030296	4.562161206030296	-2.6128331781212433	4.562161206030296
304	-0.3468030329355756	-4.927807555251732	3.3965782595673573	-4.927807555251732	4.927807555251732
305	-0.7010218652151778	-6.3557294675034735	2.9011167350798845	-6.3557294675034735	6.3557294675034735
306	-0.2743893997231401	5.287961876000505	5.287961876000505	-2.8369696884561666	5.287961876000505
307	-0.13037405213101974	-3.698909746504914	2.677921884792121	-3.698909746504914	3.698909746504914
308	-0.35121738854053336	-3.8001100128560283	2.663344276031286	-3.8001100128560283	3.8001100128560283
309	0.9254242942877486	4.659575944726292	4.659575944726292	-3.9806336138597342	4.659575944726292
310	-0.026563831392345437	-4.494393870465965	3.291137386816018	-4.494393870465965	4.494393870465965
311	-1.3881469223744909	-4.9404140669836725	3.0611753203360004	-4.9404140669836725	4.9404140669836725
312	-0.49108588299117284	-6.552241640807607	3.890619633720371	-6.552241640807607	6.552241640807607
313	0.6253210277533333	3.021440513092858	3.021440513092858	-2.12088718282759	3.021440513092858
314	-0.36432053726631064	-4.3348055834956565	2.1449970837035393	-4.3348055834956565	4.3348055834956565
315	0.09198179802898346	3.7778830605228326	3.7778830605228326	-2.5990288589747608	3.7778830605228326
316	-0.5872841301841778	-5.019151353712253	4.424547182934954	-5.019151353712253	5.019151353712253
317	-1.2129646502938312	-5.452289547573404	1.5640139187344824	-5.452289547573404	5.452289547573404
318	0.6113377884022204	4.954874177527163	4.954874177527163	-2.1192487759941834	4.954874177527163
319	-0.1682484538329245	-3.6481494947783157	2.197781250811101	-3.6481494947783157	3.6481494947783157
320	0.6726569351256474	3.5495906850646226	3.5495906850646226	-0.9042851011516696	3.5495906850646226
321	0.20871636352135128	3.293180664945263	3.293180664945263	-1.9275348453761032	3.293180664945263
322	-0.007071402670331439	2.3138850805161177	2.3138850805161177	-2.1152720593534764	2.3138850805161177
323	0.8616417272909647	3.9039001044753663	3.9039001044753663	-1.2278420866044952	3.9039001044753663
324	1.2707126239164717	2.779973795465754	2.779973795465754	-1.0408840415052392	2.779973795465754
325	0.05019877060062811	2.7395662810646964	2.7395662810646964	-2.431855981314937	2.7395662810646964
326	-0.4618940043980664	-2.4707775463435824	2.101434376256672	-2.4707775463435824	2.4707775463435824
327	0.4669115842623419	3.547746354162504	3.547746354162504	-2.4643887729823453	3.547746354162504
328	0.7154672574039099	3.77380273026965	3.77380273026965	-1.8157888195173029	3.77380273026965
329	-0.03149130900010193	3.2630043682827727	3.2630043682827727	-1.9026542855319024	3.2630043682827727
330	0.1307811426416209	2.729366767042182	2.729366767042182	-2.6737641481931127	2.729366767042182
331	-0.10622815296308159	-4.195563909816775	3.0377122417049094	-4.195563909816775	4.195563909816775
332	1.0483630765680334	4.026613489573126	4.026613489573126	-1.6153631140938818	4.026613489573126
