pos	mean_pc2	extreme_pc2	max_pc2	min_pc2	max_abs_pc2
1	0.015050913850733958	-3.372986256701417	2.6162629674200897	-3.372986256701417	3.372986256701417
2	0.6540370805442017	3.36208386441373	3.36208386441373	-1.6665248082084407	3.36208386441373
3	0.7685028068674518	2.850118427962722	2.850118427962722	-2.162718995001004	2.850118427962722
4	0.4347315211309963	2.6894850701916395	2.6894850701916395	-0.6421649050625036	2.6894850701916395
5	0.5937531297336205	2.928167321945609	2.928167321945609	-2.1422116740278767	2.928167321945609
6	0.5491902780605593	2.5065052662401675	2.5065052662401675	-1.8636282494303558	2.5065052662401675
7	0.352897751086674	2.178291105283716	2.178291105283716	-2.0478318777312143	2.178291105283716
8	0.8629413761503405	2.4135793596683204	2.4135793596683204	-1.2472541114796427	2.4135793596683204
9	0.7457407039741858	2.8950672499566084	2.8950672499566084	-1.5803131157552839	2.8950672499566084
10	1.0045753576501697	4.52067370746103	4.52067370746103	-2.873441948330823	4.52067370746103
11	0.5894872008830316	3.990443909538737	3.990443909538737	-1.0342505513129647	3.990443909538737
12	1.0512435153863584	4.096648077390909	4.096648077390909	-1.206415468862071	4.096648077390909
13	0.5370097596813379	3.61799265255009	3.61799265255009	-2.255710057320373	3.61799265255009
14	0.6682516746538476	2.437317641815663	2.437317641815663	-1.465637201468347	2.437317641815663
15	1.1284078111001272	4.453152150929343	4.453152150929343	-1.4599045140431026	4.453152150929343
16	0.18148515181370906	3.3575867363684577	3.3575867363684577	-3.147373788504663	3.3575867363684577
17	0.7154018814836663	-3.489386606630424	3.266224080369823	-3.489386606630424	3.489386606630424
18	0.45976938951851337	4.96478481187785	4.96478481187785	-1.9840313539266439	4.96478481187785
19	1.503434366235646	4.498656887365223	4.498656887365223	-1.0708185980483633	4.498656887365223
20	0.461204160371705	2.342811577200851	2.342811577200851	-2.323072753587911	2.342811577200851
21	0.8095475417052249	6.090776152103187	6.090776152103187	-3.3456965266383336	6.090776152103187
22	-0.15816372620962302	-3.3489293798688813	2.2254586573877813	-3.3489293798688813	3.3489293798688813
23	1.3943582959268808	3.772525661690862	3.772525661690862	-1.5032591293419681	3.772525661690862
24	1.2395417774635997	5.660361153448443	5.660361153448443	-1.0413377030816668	5.660361153448443
25	1.0043384584323731	3.463646432033971	3.463646432033971	-1.6986518206901444	3.463646432033971
26	0.9824296061077954	3.9579718388016314	3.9579718388016314	-2.4901381824722377	3.9579718388016314
27	0.7915395735575244	4.514184102496781	4.514184102496781	-2.358863090970469	4.514184102496781
28	0.4153775943491051	2.621773852316125	2.621773852316125	-2.421418861326951	2.621773852316125
29	0.262568659728469	3.036377835711736	3.036377835711736	-1.4303812866877432	3.036377835711736
30	0.6990993641172817	2.92761608142256	2.92761608142256	-1.960769541520621	2.92761608142256
31	1.0475098558420959	4.159925273375922	4.159925273375922	-1.4510895968428055	4.159925273375922
32	0.7060451731420582	3.68918229754303	3.68918229754303	-1.7136316424368792	3.68918229754303
33	0.8071674384546266	5.1104422234178895	5.1104422234178895	-1.8666729444571308	5.1104422234178895
34	0.7396704082863527	4.189392093967918	4.189392093967918	-2.9270674549260827	4.189392093967918
35	1.0589919350861265	4.611188723321719	4.611188723321719	-0.8545165629993154	4.611188723321719
36	0.6081103130781453	3.4314676348718582	3.4314676348718582	-1.1792078288608243	3.4314676348718582
37	0.4088273583600646	2.767309307700914	2.767309307700914	-1.4252381307672863	2.767309307700914
38	0.47441205564919403	3.516963096839441	3.516963096839441	-2.8916393818405934	3.516963096839441
39	0.4008235080643651	5.354638458878295	5.354638458878295	-2.1621713127010938	5.354638458878295
40	-1.3152641827239488	-5.055351659715663	1.4333532934849322	-5.055351659715663	5.055351659715663
41	1.1291515931034233	3.7076216717675416	3.7076216717675416	-1.6949539466448185	3.7076216717675416
42	-0.2949946172781029	3.664928527202365	3.664928527202365	-2.973130597474388	3.664928527202365
43	-1.1078050434433617	-3.972892042494415	2.0871051579426365	-3.972892042494415	3.972892042494415
44	-0.4743168096853801	-4.625120597908169	3.915970261414232	-4.625120597908169	4.625120597908169
45	0.6795611514689527	3.81958913792498	3.81958913792498	-1.9326653114184833	3.81958913792498
46	-1.1234557144317519	-4.338878453777161	2.64252156089029	-4.338878453777161	4.338878453777161
47	0.46736118715344493	4.047137411057905	4.047137411057905	-2.5024108482136573	4.047137411057905
48	-0.9643428450751643	-5.253787634518744	2.745670876094433	-5.253787634518744	5.253787634518744
49	0.34738568766880995	4.322002421356752	4.322002421356752	-3.7227562538807426	4.322002421356752
50	0.16350690620662306	7.382351785050269	7.382351785050269	-3.567916394564289	7.382351785050269
51	1.4714663730036277	4.102409658137434	4.102409658137434	-2.2106405195010854	4.102409658137434
52	0.19891956155204213	-6.270567880672938	3.8571444631999263	-6.270567880672938	6.270567880672938
53	0.9577034966930581	4.504748224093504	4.504748224093504	-1.4243666722185115	4.504748224093504
54	-0.7519557522902475	-5.578363685234698	3.9243292207434344	-5.578363685234698	5.578363685234698
55	-0.012576519539899068	3.5576339737739127	3.5576339737739127	-1.9643754284933275	3.5576339737739127
56	-0.006221841371269007	-3.871577035348214	3.3059625236655625	-3.871577035348214	3.871577035348214
57	-0.058630045008019244	5.2234536677965036	5.2234536677965036	-3.9801872607897817	5.2234536677965036
58	0.3395334015136294	6.767902138767028	6.767902138767028	-2.4515514772389206	6.767902138767028
59	0.2515127679037145	-3.710306115166575	3.044950896146686	-3.710306115166575	3.710306115166575
60	-0.46889665683514653	-5.405506577017212	2.0739017442710193	-5.405506577017212	5.405506577017212
61	-1.4281219317120901	-5.474733613587607	1.788839522324388	-5.474733613587607	5.474733613587607
62	-0.0587070772074798	-3.0285464773495714	1.7254086806701272	-3.0285464773495714	3.0285464773495714
63	0.3084783835943325	2.842695194676813	2.842695194676813	-1.9378610865707546	2.842695194676813
64	-1.0281712638057343	-4.586005681965329	2.4458944977103183	-4.586005681965329	4.586005681965329
65	0.22611040919679973	-6.11613575254967	4.10430550010607	-6.11613575254967	6.11613575254967
66	-0.4324948826712495	-3.1246558857835023	2.1113230088970787	-3.1246558857835023	3.1246558857835023
67	-0.2985942514139796	-3.8756968885861265	3.3096654307539595	-3.8756968885861265	3.8756968885861265
68	-0.8898179940323139	-3.9518205391240477	3.78216488349332	-3.9518205391240477	3.9518205391240477
69	0.7639842628046422	4.337464767191903	4.337464767191903	-2.4404031747583974	4.337464767191903
70	-0.19861541313184222	-2.8338396323129595	1.6611979492086093	-2.8338396323129595	2.8338396323129595
71	-0.9904136777121647	-4.755415775990182	1.510502069154024	-4.755415775990182	4.755415775990182
72	-0.8048493029018087	-3.7229877046751425	2.648557376289721	-3.7229877046751425	3.7229877046751425
73	-1.0609748494314055	-4.707596775706887	1.5615512042819018	-4.707596775706887	4.707596775706887
74	-0.3359157603942046	4.916654329205837	4.916654329205837	-3.9338096552726336	4.916654329205837
75	-0.3021195176468996	-3.2726881884738854	1.2387361948257878	-3.2726881884738854	3.2726881884738854
76	-1.011322383540392	-3.333344909264662	1.2545158980112618	-3.333344909264662	3.333344909264662
77	1.267043618967514	9.362233439718498	9.362233439718498	-1.4165493264023135	9.362233439718498
78	-1.2046659226691943	-4.712054586722536	1.7296912356416065	-4.712054586722536	4.712054586722536
79	2.67552394839146	12.281016398649289	12.281016398649289	-1.0490340723058103	12.281016398649289
80	-1.682409019437147	5.542594248697233	5.542594248697233	-4.900186132331066	5.542594248697233
81	-0.8261613451797215	-2.7190872254114256	1.4860287111988124	-2.7190872254114256	2.7190872254114256
82	-0.8952822398534447	-5.113942758706939	2.8724505193079213	-5.113942758706939	5.113942758706939
83	-1.1313862614193118	-5.014760994424285	2.85857044351933	-5.014760994424285	5.014760994424285
84	-0.6276785770790538	4.379165968074506	4.379165968074506	-3.982722495698547	4.379165968074506
85	0.5564502949230754	4.1150440677714215	4.1150440677714215	-2.527700226530037	4.1150440677714215
86	-1.1169585036191385	-6.205635767920411	3.1769323657654853	-6.205635767920411	6.205635767920411
87	-0.31553154106617193	-3.95097249533965	2.0266705710495607	-3.95097249533965	3.95097249533965
88	-0.9315151636309589	-4.600443048711588	2.392656518284352	-4.600443048711588	4.600443048711588
89	0.6476235087058367	-4.568290516781773	3.9892820858292817	-4.568290516781773	4.568290516781773
90	0.9409339018762738	3.161206649443222	3.161206649443222	-1.718143747526459	3.161206649443222
91	-0.02175775293592973	-4.6729511846037894	2.326149745940178	-4.6729511846037894	4.6729511846037894
92	-0.8537196319696119	-7.123483012140911	4.683109074008396	-7.123483012140911	7.123483012140911
93	-1.2186532190205401	-3.8354943106114305	2.5024430940511353	-3.8354943106114305	3.8354943106114305
94	0.7499011457311577	6.549425001419969	6.549425001419969	-1.211482778854855	6.549425001419969
95	-0.239260635367863	-2.9180276337885966	2.4115374453538316	-2.9180276337885966	2.9180276337885966
96	-0.19351725608765138	-5.005032079223216	3.1324237295096555	-5.005032079223216	5.005032079223216
97	0.79210726431024725	4.041815216517939	4.041815216517939	-3.3592713860128764	4.041815216517939
98	0.7451206189574844	4.70546734405497	4.70546734405497	-2.574393755907121	4.70546734405497
99	1.6520519011597066	4.640894621640702	4.640894621640702	-1.9156458103231997	4.640894621640702
100	0.4353178020526396	3.9997561057374047	3.9997561057374047	-2.259436021168559	3.9997561057374047
101	0.25021875411133604	-3.5142870554385772	3.498544583054833	-3.5142870554385772	3.5142870554385772
102	-0.25125348722147994	4.710594922648323	4.710594922648323	-3.86899654472876	4.710594922648323
103	0.5828341759848924	3.5916141803774266	3.5916141803774266	-3.269735508271262	3.5916141803774266
104	0.3832422509429372	2.7868830191717517	2.7868830191717517	-1.8582258570796708	2.7868830191717517
105	1.6629179971843482	5.298975025927202	5.298975025927202	-1.5337287533412518	5.298975025927202
106	-1.4436090800601866	-6.51189609237142	2.4221053206113794	-6.51189609237142	6.51189609237142
107	-1.7871867501903753	-6.5811208519079045	1.8844606622085645	-6.5811208519079045	6.5811208519079045
108	-0.20748802775439087	-5.109259789295235	4.249747924320682	-5.109259789295235	5.109259789295235
109	0.5293293649494109	2.7297652105831656	2.7297652105831656	-1.7697002653175056	2.7297652105831656
110	0.6298809061589213	3.4012617173429716	3.4012617173429716	-3.045254732972776	3.4012617173429716
111	0.5581034183105141	2.8266575191770738	2.8266575191770738	-2.4169984469671286	2.8266575191770738
112	1.1954219750812634	4.764662387178473	4.764662387178473	-1.378669851695769	4.764662387178473
113	0.205769405132475	-4.788894853585318	2.744064344566488	-4.788894853585318	4.788894853585318
114	0.3605794867417691	-4.029677125979657	2.966146145107004	-4.029677125979657	4.029677125979657
115	0.9915071299180955	5.502313637552097	5.502313637552097	-3.3294892256861948	5.502313637552097
116	0.5011858047844254	3.9133131994419275	3.9133131994419275	-1.809806123414931	3.9133131994419275
117	-0.22753266152943027	-3.3717703897821885	2.0386297567174534	-3.3717703897821885	3.3717703897821885
118	0.5212044150785708	4.850845851127707	4.850845851127707	-4.0617005842815725	4.850845851127707
119	1.0504002446648737	4.7662109764586535	4.7662109764586535	-2.773229442043724	4.7662109764586535
120	1.3585340709009104	6.560000847481991	6.560000847481991	-2.409300840601321	6.560000847481991
121	0.4108271405620121	4.062265976879407	4.062265976879407	-3.558133437871832	4.062265976879407
122	0.5463300894508256	3.398363276693154	3.398363276693154	-2.7456396049958856	3.398363276693154
123	-0.17514866503304408	-4.089774120458962	2.2853857395024684	-4.089774120458962	4.089774120458962
124	-0.6315902236721586	-6.045414340116318	3.5837762256055896	-6.045414340116318	6.045414340116318
125	-0.6719455492514014	-5.16558552132468	2.5462491114280668	-5.16558552132468	5.16558552132468
126	0.6897305114461789	3.4462756287880207	3.4462756287880207	-2.233038872880986	3.4462756287880207
127	-0.3247467136277983	3.132231088591455	3.132231088591455	-2.8309237511333816	3.132231088591455
128	0.44668757986059254	-3.5609885358271	3.1521075128811287	-3.5609885358271	3.5609885358271
129	-0.17590652894980993	3.483403605551234	3.483403605551234	-2.6432440251109983	3.483403605551234
130	0.28088942062165856	-4.595434857681322	4.294424214493681	-4.595434857681322	4.595434857681322
131	0.8067216608882621	6.828108318186841	6.828108318186841	-2.882680455928926	6.828108318186841
132	0.24337552680229052	-4.994986297064791	4.826068854171648	-4.994986297064791	4.994986297064791
133	0.6543312706242025	5.994574801431075	5.994574801431075	-4.035524852454355	5.994574801431075
134	-0.8311599714565691	-3.3305222219909165	2.487613615891309	-3.3305222219909165	3.3305222219909165
135	-0.8567216367110623	-6.92874367726151	2.8720011340552247	-6.92874367726151	6.92874367726151
136	-0.8410394150354685	-5.771214770499585	3.2243715959457466	-5.771214770499585	5.771214770499585
137	-0.9578301686196387	8.300969367323239	8.300969367323239	-4.47988973978699	8.300969367323239
138	-0.3022763512656142	2.6551676209792925	2.6551676209792925	-2.6291040020043956	2.6551676209792925
139	-0.4679473761430974	-4.9096990321521785	1.8732042624338097	-4.9096990321521785	4.9096990321521785
140	-1.3164090355945894	-5.881975967017114	5.823299379473558	-5.881975967017114	5.881975967017114
141	0.5468603375915881	7.088795531900615	7.088795531900615	-2.8698991874410393	7.088795531900615
142	-0.11745594069069171	6.754049829162759	6.754049829162759	-4.149924888671389	6.754049829162759
143	-0.6700260338485738	-4.806713119547381	3.2050085116191624	-4.806713119547381	4.806713119547381
144	-0.8153008705491062	-4.847047389454939	2.8592421579275165	-4.847047389454939	4.847047389454939
145	-1.9827608209401995	-8.066427807398016	2.357123403896659	-8.066427807398016	8.066427807398016
146	-0.20916174580790928	-6.1803242767405395	4.883658880942236	-6.1803242767405395	6.1803242767405395
147	-0.7139304133096406	-3.756855410706262	1.5512148785289979	-3.756855410706262	3.756855410706262
148	-1.6533458904177534	-4.96491655040683	2.3512561119720954	-4.96491655040683	4.96491655040683
149	0.29636317067918067	5.4515752660126875	5.4515752660126875	-3.2475778510488196	5.4515752660126875
150	1.6307021840380493	8.931390369234862	8.931390369234862	-2.43005127264519	8.931390369234862
151	-0.5268030107311836	-6.273846097571013	4.321868309430128	-6.273846097571013	6.273846097571013
152	-0.10883834466378065	11.024334927310814	11.024334927310814	-5.021463201314905	11.024334927310814
153	-1.2357805934685346	-5.198682204131049	2.723243311791573	-5.198682204131049	5.198682204131049
154	-0.4790243940419138	5.420935045601317	5.420935045601317	-5.09879687215501	5.420935045601317
155	-1.0981920194308301	-5.3694548948310334	3.3210476184333464	-5.3694548948310334	5.3694548948310334
156	-2.0286464882374338	-8.558379558867934	1.3635095230470995	-8.558379558867934	8.558379558867934
157	-0.506505898507021	-3.9507072631425775	1.2084447868371642	-3.9507072631425775	3.9507072631425775
158	-0.04717896430122792	10.483480496366358	10.483480496366358	-4.516926133272384	10.483480496366358
159	0.8675195699975715	6.216865584467804	6.216865584467804	-3.0131517574535502	6.216865584467804
160	-1.6603661272480499	-5.693864618496174	2.300574561158051	-5.693864618496174	5.693864618496174
161	-2.010969198137976	-7.058251139891322	2.8601292441714783	-7.058251139891322	7.058251139891322
162	-1.8402580326037814	-6.552806209062643	2.7218440935004122	-6.552806209062643	6.552806209062643
163	0.26708316356108763	-3.949697878630495	3.653294669410945	-3.949697878630495	3.949697878630495
164	-2.817657440587289	-8.37422535222453	3.077688802466322	-8.37422535222453	8.37422535222453
165	-0.8096176543518755	-5.415769625115809	1.699714072727174	-5.415769625115809	5.415769625115809
166	1.1922874273918782	8.003224337297251	8.003224337297251	-2.4943309410322634	8.003224337297251
167	0.1879207694117871	-3.4463385720243243	2.5276456627610324	-3.4463385720243243	3.4463385720243243
168	-0.9655260756509016	-4.3417753016515785	2.3682546508755635	-4.3417753016515785	4.3417753016515785
169	-0.43792884029122003	-4.453534461056857	3.82509378372544	-4.453534461056857	4.453534461056857
170	-0.20442370116255926	-4.375829355395783	2.7679781241295442	-4.375829355395783	4.375829355395783
171	-0.1071417371365273	-3.42310728534832	2.6162674242628867	-3.42310728534832	3.42310728534832
172	-0.4459996158574998	-2.9011541596370796	2.3334432664420266	-2.9011541596370796	2.9011541596370796
173	-0.6465484426822901	-3.839375608534512	2.8053784944307356	-3.839375608534512	3.839375608534512
174	0.06060166597715737	-3.0984636694239343	3.046656131166824	-3.0984636694239343	3.0984636694239343
175	-0.05732224054851762	-3.987770865246411	3.0235659212568997	-3.987770865246411	3.987770865246411
176	-0.3000386030629147	-5.300020743777566	3.302976527226792	-5.300020743777566	5.300020743777566
177	0.11436086481657567	3.32970149351169	3.32970149351169	-2.5033399399728298	3.32970149351169
178	-0.4031278205423171	-3.6837609302473253	2.6356544405720737	-3.6837609302473253	3.6837609302473253
179	-0.142112989423894	-3.442721514832268	2.459084247189582	-3.442721514832268	3.442721514832268
180	0.7769748295246278	-4.754920840121926	3.6311136628338305	-4.754920840121926	4.754920840121926
181	0.34985097198118875	-3.6807180053695534	3.135544999079158	-3.6807180053695534	3.6807180053695534
182	-0.509174420279848	-3.9841829898809844	1.6483573654285053	-3.9841829898809844	3.9841829898809844
183	-0.6188918906336577	-5.168572715165125	3.335572291136801	-5.168572715165125	5.168572715165125
184	0.29378400121385445	5.119181687829529	5.119181687829529	-2.5693880301614858	5.119181687829529
185	0.27789594723748595	2.8843321448847368	2.8843321448847368	-2.6730671956000522	2.8843321448847368
186	1.0256464356037511	4.291995699993977	4.291995699993977	-1.9122079954264115	4.291995699993977
187	0.10489761652337098	3.183137273891107	3.183137273891107	-2.4644816932312326	3.183137273891107
188	0.4865850868055517	3.364464030531317	3.364464030531317	-3.0923399022937983	3.364464030531317
189	0.1496111589118238	-2.8762208716193536	2.1845810284153035	-2.8762208716193536	2.8762208716193536
190	-0.5215408949097156	-5.244188419257681	3.543537824752616	-5.244188419257681	5.244188419257681
191	0.3580240948421068	4.249221062470317	4.249221062470317	-2.6774550860230297	4.249221062470317
192	-1.167447512532229	-3.9431451177159156	2.9465749728851875	-3.9431451177159156	3.9431451177159156
193	-0.038307251995981596	2.8702392372228522	2.8702392372228522	-2.2299291133490864	2.8702392372228522
194	0.7554934237105098	5.464787334499888	5.464787334499888	-2.9731065559204053	5.464787334499888
195	-1.5006365247319566	-4.151176101828856	3.7228747921134984	-4.151176101828856	4.151176101828856
196	0.026050854209765054	-3.8176718414010895	3.146376186882656	-3.8176718414010895	3.8176718414010895
197	0.4769524794433493	2.8925017114995684	2.8925017114995684	-1.758238920641865	2.8925017114995684
198	-0.6548052430758791	-3.833507043286795	3.182091760924603	-3.833507043286795	3.833507043286795
199	-0.04591510175712527	4.642080003306319	4.642080003306319	-3.0196985987129645	4.642080003306319
200	-0.19182804654236557	-3.75288542231108	3.668742808325997	-3.75288542231108	3.75288542231108
201	-0.9285020041499711	-4.319879918498069	3.681659563801622	-4.319879918498069	4.319879918498069
202	-1.2958859511281227	-4.118914605512543	2.1509314674695985	-4.118914605512543	4.118914605512543
203	0.6512644076321107	5.749627578184614	5.749627578184614	-3.695119792306322	5.749627578184614
204	0.7807929798697939	7.668779264045345	7.668779264045345	-4.652971858159091	7.668779264045345
205	-1.1019612676133836	5.048061125675171	5.048061125675171	-4.50090269276609	5.048061125675171
206	-0.17715351646872135	3.4349860732743362	3.4349860732743362	-3.2918731011266336	3.4349860732743362
207	0.5749846381653758	3.723565183061427	3.723565183061427	-2.9763428618095165	3.723565183061427
208	-1.7533763968063896	-4.930323485121253	1.3684341211710418	-4.930323485121253	4.930323485121253
209	-0.19055758139652856	7.147333828627138	7.147333828627138	-3.8885610683577143	7.147333828627138
210	-0.7106408525950649	-4.161434522768698	3.2594851647030834	-4.161434522768698	4.161434522768698
211	-0.003706437438778963	-4.316675090557276	3.1179340516711167	-4.316675090557276	4.316675090557276
212	0.021984367176383402	-2.3026329683998514	2.22475426353079	-2.3026329683998514	2.3026329683998514
213	-0.363128857008442	-3.4558351167434815	2.539206670595532	-3.4558351167434815	3.4558351167434815
214	-0.3668816930731055	6.498025884297637	6.498025884297637	-4.2540903985811624	6.498025884297637
215	-0.42276699127468875	4.1052274462199705	4.1052274462199705	-3.8747434524907183	4.1052274462199705
216	-1.478311486238527	5.886711081377529	5.886711081377529	-4.07420723483433	5.886711081377529
217	0.6014764993815985	-4.770165853304333	4.727338090899719	-4.770165853304333	4.770165853304333
218	-0.030318150831665558	4.920125038728488	4.920125038728488	-3.6289536785954697	4.920125038728488
219	0.18390487204562608	-2.123474789216446	1.9198183832011135	-2.123474789216446	2.123474789216446
220	-1.9949516837699173	-5.103515881050804	1.1226542764558456	-5.103515881050804	5.103515881050804
221	1.6990696682356772	6.348478438486512	6.348478438486512	-3.7854106932009794	6.348478438486512
222	-0.16962697073333372	4.006558575173225	4.006558575173225	-2.2082591563482765	4.006558575173225
223	1.5481611834610147	19.04827304805222	19.04827304805222	-2.605389943875022	19.04827304805222
224	-1.0404756390857564	-4.309659816778984	1.973519756911328	-4.309659816778984	4.309659816778984
225	-0.7843905081428654	-3.2243556489276806	1.5094994151640515	-3.2243556489276806	3.2243556489276806
226	-1.5824087112991232	-5.449048440908498	2.5150131679959546	-5.449048440908498	5.449048440908498
227	-0.78078452633288	-4.248454173293229	1.7237621357509494	-4.248454173293229	4.248454173293229
228	2.104653492143181	9.81066858651884	9.81066858651884	-2.9710239839921035	9.81066858651884
229	-1.5625176623679127	-5.497016065206146	2.084973879887757	-5.497016065206146	5.497016065206146
230	1.5320671374981583	8.5031658295852	8.5031658295852	-2.6387107292244254	8.5031658295852
231	-1.5257724452533845	-4.887726366632617	0.4334244512626972	-4.887726366632617	4.887726366632617
232	0.8840769657507179	5.738814922422835	5.738814922422835	-2.248137151974632	5.738814922422835
233	0.0528091381365691	5.290105989064786	5.290105989064786	-3.993869002428174	5.290105989064786
234	0.4182772143391772	5.20300402071515	5.20300402071515	-2.1995728467552116	5.20300402071515
235	1.3628131483607688	4.537585907940727	4.537585907940727	-1.4026245312395316	4.537585907940727
236	-1.1380203051659956	-4.640963497355145	2.7442507201972606	-4.640963497355145	4.640963497355145
237	-0.022435215187982076	5.864249607291938	5.864249607291938	-3.3691347100147815	5.864249607291938
238	-0.08771602970674952	4.008737062995515	4.008737062995515	-3.541131303672283	4.008737062995515
239	0.44031265866577646	5.786924412425344	5.786924412425344	-2.720042240816323	5.786924412425344
240	0.8803835923684675	5.475249107989207	5.475249107989207	-1.8159202905531415	5.475249107989207
241	0.309948918390224	-5.499604202693501	5.4180211276351224	-5.499604202693501	5.499604202693501
242	-1.6122850569163865	-5.307734407028066	3.429115329550881	-5.307734407028066	5.307734407028066
243	0.5474358512414523	-6.103116373646795	5.10788438626919	-6.103116373646795	6.103116373646795
244	-1.6825485031537128	-4.775924810789528	1.0489308271301598	-4.775924810789528	4.775924810789528
245	-0.6678931852002751	-3.914513612900485	2.092440462713833	-3.914513612900485	3.914513612900485
246	-1.8849625043041505	-5.86430370190528	1.0408899132402682	-5.86430370190528	5.86430370190528
247	-0.43384104008117125	-2.17884618615004	2.118106361230397	-2.17884618615004	2.17884618615004
248	-0.7289448913379882	-7.236640189261836	3.5066262759431863	-7.236640189261836	7.236640189261836
249	-0.6132341374543233	-3.0140654362141657	2.7856820417895993	-3.0140654362141657	3.0140654362141657
250	-0.4148405783804684	-7.817128033918335	4.292462719597603	-7.817128033918335	7.817128033918335
251	-1.0634095192152078	-4.890133719617026	1.291092071866131	-4.890133719617026	4.890133719617026
252	-0.8191195021968434	-5.4065171676658945	2.901994789140018	-5.4065171676658945	5.4065171676658945
253	0.22554712485864825	4.363334379064076	4.363334379064076	-2.3958510191006077	4.363334379064076
254	-0.3133299713799396	12.054773648879443	12.054773648879443	-4.041096602209834	12.054773648879443
255	-0.43454009898791024	3.7042133613304316	3.7042133613304316	-2.8836702584578067	3.7042133613304316
256	-0.2855965805953959	-4.113424222975832	2.7216906578235838	-4.113424222975832	4.113424222975832
257	-1.065523645186131	-4.335458586591323	2.847801009327582	-4.335458586591323	4.335458586591323
258	-0.4115083429140692	-3.8918841794249985	2.8158839996784337	-3.8918841794249985	3.8918841794249985
259	0.4868654643581191	4.046314445077963	4.046314445077963	-1.8911106553861903	4.046314445077963
260	1.4067041434918843	5.6175027134727245	5.6175027134727245	-4.362215155982755	5.6175027134727245
261	0.24384234960768097	3.5083167349135262	3.5083167349135262	-3.2478573976528358	3.5083167349135262
262	-0.961275761838934	-4.907575544763775	3.152594217865191	-4.907575544763775	4.907575544763775
263	-0.16124673105536536	-3.9993087415789494	3.1002023033636936	-3.9993087415789494	3.9993087415789494
264	1.117950525760184	4.47429105437161	4.47429105437161	-0.7581457970969925	4.47429105437161
265	0.578291816116453	3.9460378993780694	3.9460378993780694	-2.458308883648579	3.9460378993780694
266	-0.21033633955189662	-4.1707218648433795	2.6622823089553154	-4.1707218648433795	4.1707218648433795
267	-0.40428774919292976	-4.722125505736798	2.8672650451862487	-4.722125505736798	4.722125505736798
268	0.4396512163969377	2.61169515736081	2.61169515736081	-1.627568152018432	2.61169515736081
269	-0.9588121239078428	-4.66669399284512	2.276415636216451	-4.66669399284512	4.66669399284512
270	-0.5007415418590327	-6.0490837430433695	2.6003128222876692	-6.0490837430433695	6.0490837430433695
271	0.8332905512122954	2.892417235982964	2.892417235982964	-2.230472032620356	2.892417235982964
272	-1.7119899924238013	-4.949958768891648	0.7017461939690258	-4.949958768891648	4.949958768891648
273	0.2700703053142191	3.820824382075437	3.820824382075437	-2.8572327846542427	3.820824382075437
274	-1.5312634601693285	-4.8710008043975135	2.2621900305338105	-4.8710008043975135	4.8710008043975135
275	-0.6298458146421198	-3.043474560125304	2.390578298697411	-3.043474560125304	3.043474560125304
276	-1.4771716054339028	-7.034644314897484	1.541951750520508	-7.034644314897484	7.034644314897484
277	1.5061867572836962	3.764611541367159	3.764611541367159	-3.067486853609736	3.764611541367159
278	0.7562304084756951	4.808140108192671	4.808140108192671	-3.5323242347495185	4.808140108192671
279	0.06931049740383295	3.3001164181315055	3.3001164181315055	-2.291951317312012	3.3001164181315055
280	0.7890011991026448	4.88823409555059	4.88823409555059	-4.330838473710376	4.88823409555059
281	0.05556840354023886	-2.916088228724318	2.541798644501836	-2.916088228724318	2.916088228724318
282	-0.5677469440038568	-2.3878575268013593	1.4025622787668346	-2.3878575268013593	2.3878575268013593
283	-0.5726179648790513	-4.956197974628626	4.436345428060191	-4.956197974628626	4.956197974628626
284	1.5448007456740878	4.066855258886991	4.066855258886991	-2.3000708130972685	4.066855258886991
285	-0.5409501459025868	-5.975335019005831	2.850768670617612	-5.975335019005831	5.975335019005831
286	-0.2952394844712903	3.368424644908131	3.368424644908131	-2.982402141387547	3.368424644908131
287	0.0294806067577902	3.1828343369688255	3.1828343369688255	-2.6241379535655645	3.1828343369688255
288	1.164536640608214	4.370193655058579	4.370193655058579	-3.2104233543786562	4.370193655058579
289	0.5902590207428471	3.931120489279954	3.931120489279954	-2.938605515074012	3.931120489279954
290	0.5855785001111564	4.611146905272081	4.611146905272081	-2.1045397007256033	4.611146905272081
291	0.8501157205096838	-5.567328657875815	3.1751500535108557	-5.567328657875815	5.567328657875815
292	0.8931756534529809	4.658155668403879	4.658155668403879	-2.237916689881388	4.658155668403879
293	0.8766201885616622	-3.987802582517872	3.911047850143354	-3.987802582517872	3.987802582517872
294	0.1253867882469352	4.342157336370601	4.342157336370601	-3.5703790865794587	4.342157336370601
295	1.056452542962076	4.158646405626735	4.158646405626735	-3.8148467602613527	4.158646405626735
296	0.17310132427273736	-3.958332527077766	2.8786543961814792	-3.958332527077766	3.958332527077766
297	1.1595003948172626	4.61468199917253	4.61468199917253	-2.2539877849565486	4.61468199917253
298	2.54243853711869	4.17152688314334	4.17152688314334	-0.6618898544846084	4.17152688314334
299	1.7564080516201126	4.912875795962837	4.912875795962837	-1.7755327747480547	4.912875795962837
300	0.12044080193555909	-4.081603657677393	3.962961536365617	-4.081603657677393	4.081603657677393
301	0.549644979573776	4.416002119330644	4.416002119330644	-3.114144077790713	4.416002119330644
302	1.5730478377748223	5.514391919969965	5.514391919969965	-4.652227653029185	5.514391919969965
303	1.3723212756808807	4.562161206030295	4.562161206030295	-2.612833178121241	4.562161206030295
304	-0.34680303293557746	-4.927807555251739	3.396578259567363	-4.927807555251739	4.927807555251739
305	-0.7010218652151812	-6.355729467503488	2.9011167350798903	-6.355729467503488	6.355729467503488
306	-0.274389399723148	5.287961876000507	5.287961876000507	-2.8369696884561773	5.287961876000507
307	-0.1303740521310243	-3.698909746504923	2.6779218847921236	-3.698909746504923	3.698909746504923
308	-0.3512173885405378	-3.800110012856031	2.6633442760312884	-3.800110012856031	3.800110012856031
309	0.9254242942877429	4.659575944726285	4.659575944726285	-3.9806336138597453	4.659575944726285
310	-0.02656383139234969	-4.494393870465975	3.29113738681602	-4.494393870465975	4.494393870465975
311	-1.3881469223744953	-4.9404140669836805	3.0611753203360026	-4.9404140669836805	4.9404140669836805
312	-0.4910858829911784	-6.552241640807625	3.890619633720367	-6.552241640807625	6.552241640807625
313	0.6253210277533285	3.0214405130928603	3.0214405130928603	-2.120887182827602	3.0214405130928603
314	-0.3643205372663179	-4.334805583495669	2.1449970837035375	-4.334805583495669	4.334805583495669
315	0.0919817980289798	3.7778830605228397	3.7778830605228397	-2.5990288589747736	3.7778830605228397
316	-0.5872841301841821	-5.019151353712263	4.424547182934955	-5.019151353712263	5.019151353712263
317	-1.2129646502938372	-5.452289547573421	1.5640139187344706	-5.452289547573421	5.452289547573421
318	0.6113377884022166	4.954874177527168	4.954874177527168	-2.1192487759942003	4.954874177527168
319	-0.16824845383292863	-3.648149494778324	2.197781250811098	-3.648149494778324	3.648149494778324
320	0.6726569351256441	3.5495906850646266	3.5495906850646266	-0.9042851011516806	3.5495906850646266
321	0.20871636352134706	3.2931806649452624	3.2931806649452624	-1.9275348453761092	3.2931806649452624
322	-0.0070714026703351755	2.3138850805161177	2.3138850805161177	-2.1152720593534826	2.3138850805161177
323	0.8616417272909629	3.9039001044753654	3.9039001044753654	-1.2278420866044972	3.9039001044753654
324	1.2707126239164717	2.7799737954657586	2.7799737954657586	-1.040884041505238	2.7799737954657586
325	0.05019877060062523	2.739566281064694	2.739566281064694	-2.43185598131494	2.739566281064694
326	-0.46189400439807143	-2.4707775463435997	2.1014343762566723	-2.4707775463435997	2.4707775463435997
327	0.46691158426233825	3.5477463541625065	3.5477463541625065	-2.4643887729823533	3.5477463541625065
328	0.7154672574039065	3.7738027302696517	3.7738027302696517	-1.8157888195173069	3.7738027302696517
329	-0.031491309000106014	3.263004368282775	3.263004368282775	-1.9026542855319084	3.263004368282775
330	0.1307811426416169	2.729366767042187	2.729366767042187	-2.6737641481931327	2.729366767042187
331	-0.10622815296308494	-4.195563909816784	3.037712241704919	-4.195563909816784	4.195563909816784
332	1.048363076568031	4.026613489573128	4.026613489573128	-1.6153631140938916	4.026613489573128
