pos	mean_pc2	extreme_pc2	max_pc2	min_pc2	max_abs_pc2
1	0.01647538322058041	3.4377541814032537	3.4377541814032537	-3.2292177915523066	3.4377541814032537
2	0.8444859058213869	4.407365988702882	4.407365988702882	-1.4835739930162926	4.407365988702882
3	0.8152947709784854	3.705472421880773	3.705472421880773	-2.5141046997568406	3.705472421880773
4	0.6201690395398425	2.744909396912778	2.744909396912778	-0.5141795290461876	2.744909396912778
5	0.6096197597201223	4.092709075437298	4.092709075437298	-2.6557799622696687	4.092709075437298
6	0.5909920028842347	-3.0439300053822698	2.8429507941897176	-3.0439300053822698	3.0439300053822698
7	0.20381163238826677	-2.656640423814369	2.6443317401722686	-2.656640423814369	2.656640423814369
8	1.263124787772493	3.4469487554539784	3.4469487554539784	-1.193679213198349	3.4469487554539784
9	0.63500753652795	2.9158652478562086	2.9158652478562086	-1.7958987204855004	2.9158652478562086
10	1.100772747936975	4.152839568182172	4.152839568182172	-2.7457344406809536	4.152839568182172
11	0.5427128775658693	3.571588602896799	3.571588602896799	-1.5109124280012365	3.571588602896799
12	1.3178059352169464	3.8528112914968515	3.8528112914968515	-1.138967389217103	3.8528112914968515
13	0.8090207913632892	3.559147725839132	3.559147725839132	-2.6950395692093316	3.559147725839132
14	0.9919567260853658	3.4500338155410333	3.4500338155410333	-0.8621651160310991	3.4500338155410333
15	1.1736025132775887	4.295322005404334	4.295322005404334	-1.7718182513255336	4.295322005404334
16	0.19472485312579482	-2.951565644622013	2.2600603007162157	-2.951565644622013	2.951565644622013
17	0.8797547251309534	3.7038174545926403	3.7038174545926403	-3.5960699823525664	3.7038174545926403
18	0.6779432746967893	4.803506720160412	4.803506720160412	-1.9488529816856244	4.803506720160412
19	1.5183712192256944	4.0786684032688	4.0786684032688	-1.1447813972432463	4.0786684032688
20	0.5989504114086577	3.285176927353155	3.285176927353155	-2.2304303853137615	3.285176927353155
21	0.9779089997852177	6.022378367091674	6.022378367091674	-3.1668565781924753	6.022378367091674
22	-0.19581718755276353	-3.5598061155399954	2.8923971938666524	-3.5598061155399954	3.5598061155399954
23	1.5872603323808143	3.389792041523523	3.389792041523523	-1.5591435400372422	3.389792041523523
24	1.5080514589090743	5.415556876190859	5.415556876190859	-1.028274635302246	5.415556876190859
25	1.0777281625217823	3.368475113977498	3.368475113977498	-1.791712765950056	3.368475113977498
26	1.1062770615479252	3.753495786960003	3.753495786960003	-2.5918921712552976	3.753495786960003
27	0.9623967151502375	4.636658284067449	4.636658284067449	-2.124268513712736	4.636658284067449
28	0.4351101289104603	-3.5580250365416246	3.0034735335040534	-3.5580250365416246	3.5580250365416246
29	0.28862867313282936	3.1767586931475775	3.1767586931475775	-1.4758971321025034	3.1767586931475775
30	0.8017388154605574	3.314154952605131	3.314154952605131	-1.9709124092530157	3.314154952605131
31	1.2477267705781105	3.854441248899221	3.854441248899221	-1.4574803312406068	3.854441248899221
32	0.9673969041778738	3.8060600953075205	3.8060600953075205	-1.6300874739808149	3.8060600953075205
33	0.8476169762930177	4.727151184322681	4.727151184322681	-1.7344906168931113	4.727151184322681
34	0.9035621051414685	5.651497925847586	5.651497925847586	-3.646221730696632	5.651497925847586
35	1.3721448539281373	4.326740764834316	4.326740764834316	-0.6223513862971596	4.326740764834316
36	0.7194741271310988	3.5733028251775347	3.5733028251775347	-0.9699072601153824	3.5733028251775347
37	0.31636330430338283	3.6738556692970574	3.6738556692970574	-1.9093919810906708	3.6738556692970574
38	0.6123705886165657	4.4387210695376105	4.4387210695376105	-2.2750017396884576	4.4387210695376105
39	0.5053961758419209	5.433271084666279	5.433271084666279	-2.0864537289835963	5.433271084666279
40	-1.2655004076514818	-4.9186293000279235	1.3842125530971852	-4.9186293000279235	4.9186293000279235
41	1.2911164121068894	4.6021388007960375	4.6021388007960375	-1.4941002396176106	4.6021388007960375
42	-0.29566989789967774	4.074760965390736	4.074760965390736	-3.217582740381097	4.074760965390736
43	-1.2550095503332466	-4.84615234301122	2.0464114095633477	-4.84615234301122	4.84615234301122
44	-0.726638820277162	-4.597642576912217	3.7255212316720536	-4.597642576912217	4.597642576912217
45	0.692496978628188	3.6392749863953173	3.6392749863953173	-1.7509682118035328	3.6392749863953173
46	-1.254572434207196	-4.109050608168765	2.7978253585928514	-4.109050608168765	4.109050608168765
47	0.47078834208886244	3.955875050034214	3.955875050034214	-2.569537543386128	3.955875050034214
48	-0.7630030405031681	-4.755945747303137	4.385216869129661	-4.755945747303137	4.755945747303137
49	0.6427134086374096	4.757489568029094	4.757489568029094	-3.122337187490857	4.757489568029094
50	0.02583534910507073	7.194284146161179	7.194284146161179	-3.648885561536958	7.194284146161179
51	1.0702619334794894	3.545921141807331	3.545921141807331	-2.2663862486894457	3.545921141807331
52	0.10322871919445632	-5.816433327643478	4.103686426895064	-5.816433327643478	5.816433327643478
53	0.6572273532140458	4.140896333247232	4.140896333247232	-1.6072440146973643	4.140896333247232
54	-0.6207712543082345	-5.5674945188058995	4.475696439447239	-5.5674945188058995	5.5674945188058995
55	-0.32526328178975306	3.0607964313594707	3.0607964313594707	-2.4128425169736936	3.0607964313594707
56	-0.0367016919033401	-3.6472083572863636	3.4359493206705203	-3.6472083572863636	3.6472083572863636
57	-0.3739250699182839	4.845693300222619	4.845693300222619	-4.134273661892704	4.845693300222619
58	0.5137050821489931	6.200192442856633	6.200192442856633	-2.926279217203388	6.200192442856633
59	0.41212424189775115	3.3848173114333058	3.3848173114333058	-3.203028127093872	3.3848173114333058
60	-0.650793952156383	-5.206090085090013	2.046376558285697	-5.206090085090013	5.206090085090013
61	-1.6621613164630151	-5.848376616012177	3.055173474407015	-5.848376616012177	5.848376616012177
62	-0.45174261450609915	-3.616030182747532	1.5393771082713714	-3.616030182747532	3.616030182747532
63	0.21211766267324597	2.776857452699338	2.776857452699338	-2.3797306399590514	2.776857452699338
64	-1.0018533159687601	-3.8160960160489776	2.2798831719211545	-3.8160960160489776	3.8160960160489776
65	0.23500174693642087	-5.502988736714074	4.26586663113655	-5.502988736714074	5.502988736714074
66	-0.37581013920652684	-2.983246638905211	2.7311423813517273	-2.983246638905211	2.983246638905211
67	-0.39760095245682764	-3.6940273674947877	3.396898337021039	-3.6940273674947877	3.6940273674947877
68	-0.6147040946031296	4.998603132750986	4.998603132750986	-3.5244448851281884	4.998603132750986
69	0.61477479932485	4.257223836263181	4.257223836263181	-2.519817372338239	4.257223836263181
70	-0.0748822134561165	-2.9109280476832153	2.0345008174618804	-2.9109280476832153	2.9109280476832153
71	-1.0521389317829914	-4.70758163618276	1.6083185026641449	-4.70758163618276	4.70758163618276
72	-1.1367242180727164	-3.4590023775461005	1.8051885177293214	-3.4590023775461005	3.4590023775461005
73	-1.2515516242102476	-4.573663131593893	1.2720405502457064	-4.573663131593893	4.573663131593893
74	-0.44745933981922426	5.4235994040368185	5.4235994040368185	-3.9235127696235352	5.4235994040368185
75	-0.18584168481689953	-2.9727203865941125	1.8389791813064196	-2.9727203865941125	2.9727203865941125
76	-0.6850625283902892	-3.3995623468995526	2.3113951978323146	-3.3995623468995526	3.3995623468995526
77	1.3574837591084317	8.583303023008202	8.583303023008202	-1.777161402521034	8.583303023008202
78	-1.029824994864658	-3.761597063701103	2.08666029653153	-3.761597063701103	3.761597063701103
79	2.8746580646217805	10.67781746551671	10.67781746551671	-2.822110509543727	10.67781746551671
80	-1.5012615875968696	5.602474286833224	5.602474286833224	-4.152005534318113	5.602474286833224
81	-1.0069072505745684	-3.0305171945107165	2.1822094418765574	-3.0305171945107165	3.0305171945107165
82	-0.8410666280247139	-4.642564396094143	3.6698756020896885	-4.642564396094143	4.642564396094143
83	-1.1977431322609895	-4.730637986935102	3.1077226532009607	-4.730637986935102	4.730637986935102
84	-0.5551031088027705	3.945484015658055	3.945484015658055	-3.5602642137877023	3.945484015658055
85	0.2996339435285697	-3.0279248107614585	3.003310092281793	-3.0279248107614585	3.0279248107614585
86	-0.9974723357645328	-5.36323989763719	3.705914989297192	-5.36323989763719	5.36323989763719
87	-0.4151147829632676	-3.7613871524838016	2.1246132877633284	-3.7613871524838016	3.7613871524838016
88	-0.8234514547931592	-4.046722104329379	3.2035333845592815	-4.046722104329379	4.046722104329379
89	0.47058488274566973	4.388479084122122	4.388479084122122	-4.098257768847136	4.388479084122122
90	0.9583373608203013	3.169960270745394	3.169960270745394	-1.7717615794513903	3.169960270745394
91	-0.04684611984058661	-4.068986194747481	2.6836335196526386	-4.068986194747481	4.068986194747481
92	-0.703061134210394	-6.122865533739317	5.0925867246646455	-6.122865533739317	6.122865533739317
93	-1.2554234847701233	-3.5958499894335185	2.1174196148514106	-3.5958499894335185	3.5958499894335185
94	0.49755622938932387	6.102533816915249	6.102533816915249	-2.1790444281487833	6.102533816915249
95	-0.23632886804538117	-2.653804548326863	2.652651535012576	-2.653804548326863	2.653804548326863
96	-0.05829371380962226	-3.9180731316236317	2.869888000352698	-3.9180731316236317	3.9180731316236317
97	0.9702123605015024	-4.953849475863639	4.464718021409871	-4.953849475863639	4.953849475863639
98	0.6726642267389873	4.1944500530297715	4.1944500530297715	-2.7093428276148597	4.1944500530297715
99	1.6459548738341057	4.492586500531283	4.492586500531283	-1.8104916667354258	4.492586500531283
100	0.6897285541698088	4.410658075921962	4.410658075921962	-2.1264805192505163	4.410658075921962
101	0.35162251385927656	4.080008576029066	4.080008576029066	-2.9340776359601266	4.080008576029066
102	0.02467207624816218	5.152386069936405	5.152386069936405	-4.225886582363311	5.152386069936405
103	0.5106873134702692	3.379660327095476	3.379660327095476	-3.335092031717611	3.379660327095476
104	0.5526731581918152	4.009896013689614	4.009896013689614	-1.632543349904141	4.009896013689614
105	1.8299751382457665	5.178819178689985	5.178819178689985	-1.782136499024558	5.178819178689985
106	-1.4834933023171677	-6.800263213072103	2.2775185019659383	-6.800263213072103	6.800263213072103
107	-1.7340600496468987	-6.141568430044713	2.8372348150836983	-6.141568430044713	6.141568430044713
108	0.19910788761370626	5.162593469460959	5.162593469460959	-4.797433973009751	5.162593469460959
109	0.609524774784774	3.2087061178901344	3.2087061178901344	-2.0451179258499	3.2087061178901344
110	0.4152190269226356	-3.5925745978152928	3.427277140401762	-3.5925745978152928	3.5925745978152928
111	0.6727593632367653	3.78542958187982	3.78542958187982	-2.4688058377783064	3.78542958187982
112	1.1693523242823407	3.552014573433263	3.552014573433263	-1.0620391600096881	3.552014573433263
113	0.08686025500010232	-5.228853401397371	3.275951162256339	-5.228853401397371	5.228853401397371
114	0.41220762946719003	-4.830126596590406	2.786761813332493	-4.830126596590406	4.830126596590406
115	1.1784593852968084	6.267964949294107	6.267964949294107	-3.9385333308787356	6.267964949294107
116	0.42885944803471376	3.4111490673693243	3.4111490673693243	-2.021143795843372	3.4111490673693243
117	-0.22821228126860663	-3.960733799016638	2.6967945868541	-3.960733799016638	3.960733799016638
118	0.6101870053420108	4.683028915375443	4.683028915375443	-4.052624214905363	4.683028915375443
119	1.0699654803271432	4.416834031287733	4.416834031287733	-2.549141846614611	4.416834031287733
120	1.474293731150668	5.802456156193097	5.802456156193097	-3.25075269698411	5.802456156193097
121	0.5489354126987518	3.1798484696818905	3.1798484696818905	-3.1014644334504715	3.1798484696818905
122	0.511346774581521	3.979415173670046	3.979415173670046	-2.8793521811677145	3.979415173670046
123	-0.18612629887665977	-4.530232449525842	2.5597800892355798	-4.530232449525842	4.530232449525842
124	-0.6313533908459262	-5.2475445519976684	3.8181344003948627	-5.2475445519976684	5.2475445519976684
125	-0.8914829607974784	-4.469645909787762	2.7227330770972973	-4.469645909787762	4.469645909787762
126	0.0075612185814180905	2.546727727980017	2.546727727980017	-1.4407866576021262	2.546727727980017
127	-0.35167682214726836	3.239346039500861	3.239346039500861	-2.426369407775867	3.239346039500861
128	0.004775427245072896	-3.0440989465101964	2.2241913875130566	-3.0440989465101964	3.0440989465101964
129	-0.22159902191081887	-3.5049620358509532	2.753594581376999	-3.5049620358509532	3.5049620358509532
130	0.37024893093049915	4.3053778564665475	4.3053778564665475	-3.8172326122789126	4.3053778564665475
131	0.5727755251482274	6.497348682095064	6.497348682095064	-3.317309046470959	6.497348682095064
132	0.15944087722713493	-4.732097295152018	4.3848546267501	-4.732097295152018	4.732097295152018
133	0.5326984055280911	5.8861858604513255	5.8861858604513255	-4.490714618290795	5.8861858604513255
134	-0.7797643438196571	-4.280702418073236	2.6676587622266856	-4.280702418073236	4.280702418073236
135	-1.2895395939791399	-6.22136233426828	2.478341637202398	-6.22136233426828	6.22136233426828
136	-0.9910358490728731	-5.559526493150386	3.645548945792763	-5.559526493150386	5.559526493150386
137	-1.2921870068456462	7.616594775965083	7.616594775965083	-4.446370924548702	7.616594775965083
138	-0.5403655074385597	3.134409810292256	3.134409810292256	-2.927066954812992	3.134409810292256
139	-0.5986678859083122	-4.218364764776401	1.993152477472871	-4.218364764776401	4.218364764776401
140	-1.2327741218162105	6.039700130497096	6.039700130497096	-4.963090117158118	6.039700130497096
141	0.42285710862956977	6.799935705088834	6.799935705088834	-3.623815589440408	6.799935705088834
142	-0.23791287418468557	6.600325197638978	6.600325197638978	-3.720813575542094	6.600325197638978
143	-0.5026550017059688	-4.671453115023583	3.0847806196835994	-4.671453115023583	4.671453115023583
144	-1.2412311680208021	-4.721850886049075	2.4701748647495654	-4.721850886049075	4.721850886049075
145	-1.9858415768110866	-6.9675078550022995	2.6221124953254202	-6.9675078550022995	6.9675078550022995
146	0.42490390157020647	6.98087417918714	6.98087417918714	-5.712042313378084	6.98087417918714
147	-0.46797815817937627	-3.3432917448210655	2.506891319138109	-3.3432917448210655	3.3432917448210655
148	-1.237145990929324	4.413036388181819	4.413036388181819	-4.086923898919554	4.413036388181819
149	-0.1416708313910736	4.806047172426854	4.806047172426854	-4.37071067886539	4.806047172426854
150	1.5001185962953554	7.735049010026639	7.735049010026639	-4.08663220214317	7.735049010026639
151	-0.6928373357999966	-5.448656756818362	3.6257615739414883	-5.448656756818362	5.448656756818362
152	-0.1568749832116544	9.956210474954815	9.956210474954815	-5.1994786027656446	9.956210474954815
153	-1.014675898121258	-4.362547046048935	2.527866415125265	-4.362547046048935	4.362547046048935
154	-0.5046009809152681	-4.502614104068081	4.483537497585907	-4.502614104068081	4.502614104068081
155	-1.0394495721312051	-4.29414240493563	2.7417387559991235	-4.29414240493563	4.29414240493563
156	-1.8967770625343925	-7.112282665333693	1.961612985587054	-7.112282665333693	7.112282665333693
157	-0.349739837056401	-4.427328271886813	1.8230590176708559	-4.427328271886813	4.427328271886813
158	-0.24223681973124683	9.460424474462071	9.460424474462071	-4.492846180299936	9.460424474462071
159	0.7873804583427352	5.288502506666954	5.288502506666954	-3.246249031939222	5.288502506666954
160	-1.83695810934181	-5.227718006700772	1.8979913164491276	-5.227718006700772	5.227718006700772
161	-2.2524535587806684	-6.862172077936386	2.7716786719443487	-6.862172077936386	6.862172077936386
162	-2.45855330750037	-7.415286809948796	1.936023341433772	-7.415286809948796	7.415286809948796
163	0.391986372306959	-3.4718907363681946	3.014718127343505	-3.4718907363681946	3.4718907363681946
164	-2.9722948513478236	-7.716429008574209	2.1718890912562387	-7.716429008574209	7.716429008574209
165	-1.0608909447711377	-4.447606271626001	1.232802086141835	-4.447606271626001	4.447606271626001
166	0.7664482631639111	8.165037857793495	8.165037857793495	-3.0691429241385264	8.165037857793495
167	0.20493978253132605	-3.581342369078337	2.6112733505463623	-3.581342369078337	3.581342369078337
168	-0.8594375103878235	-4.4689717766146995	2.85597436776318	-4.4689717766146995	4.4689717766146995
169	-0.4107986020603525	-4.1360834950330805	3.68065874831143	-4.1360834950330805	4.1360834950330805
170	-0.045322139291202386	-4.315381485828879	2.627742354326294	-4.315381485828879	4.315381485828879
171	-0.07814971525343976	-3.4058627554220084	2.652293328942885	-3.4058627554220084	3.4058627554220084
172	-0.4704359678498738	-2.725047235769005	2.386322568920143	-2.725047235769005	2.725047235769005
173	-0.6386397672550774	-3.620434220799507	2.637067103186588	-3.620434220799507	3.620434220799507
174	0.24913339570427392	3.151478504182853	3.151478504182853	-2.472282162269769	3.151478504182853
175	-0.05599063804216814	-4.060971930658788	2.9951824119953914	-4.060971930658788	4.060971930658788
176	-0.25295469211010757	-5.436765999796293	3.248831585515539	-5.436765999796293	5.436765999796293
177	0.29866718496876116	3.601278000290444	3.601278000290444	-2.1735671432916224	3.601278000290444
178	-0.4467645079097802	-3.8972473517207256	2.4587215135744698	-3.8972473517207256	3.8972473517207256
179	-0.1021152078270956	-3.503853424880118	2.4247681171073285	-3.503853424880118	3.503853424880118
180	0.8248012364952768	-4.75430189539032	3.668153171607824	-4.75430189539032	4.75430189539032
181	0.5162362109549954	-3.3618990094304975	3.1309524595671387	-3.3618990094304975	3.3618990094304975
182	-0.44300489735541104	-3.8158807236891583	1.9088400278008175	-3.8158807236891583	3.8158807236891583
183	-0.5924226660419607	-5.172178507471819	3.291533674912959	-5.172178507471819	5.172178507471819
184	0.29555585057744244	5.142539671086466	5.142539671086466	-2.8255695592422505	5.142539671086466
185	0.5085097723371172	3.057548541844799	3.057548541844799	-2.5769022907511547	3.057548541844799
186	1.1326630821101638	4.60401786374131	4.60401786374131	-1.7664096118419517	4.60401786374131
187	0.3108818447098094	3.4132072097628767	3.4132072097628767	-2.437258762349119	3.4132072097628767
188	0.5576922581843108	3.4438867043900796	3.4438867043900796	-3.0789914968704624	3.4438867043900796
189	0.2148941670241145	-2.8489721131767802	2.23216156999084	-2.8489721131767802	2.8489721131767802
190	-0.44215952254413826	-5.05804431336733	3.4138550893558963	-5.05804431336733	5.05804431336733
191	0.4393107242012458	4.40994518674316	4.40994518674316	-2.7952706828829883	4.40994518674316
192	-1.1759199359183865	-3.8861799875815866	2.885760970928879	-3.8861799875815866	3.8861799875815866
193	0.06611216858422825	3.0084805269610833	3.0084805269610833	-2.1457380623667928	3.0084805269610833
194	0.7488430866373412	5.59100085250358	5.59100085250358	-2.9629860086511304	5.59100085250358
195	-1.3904588919961194	-3.8698342551680796	3.6156131451914835	-3.8698342551680796	3.8698342551680796
196	0.09158548299594396	-3.9393436319882125	3.077990652848701	-3.9393436319882125	3.9393436319882125
197	0.4336404241737924	2.995288181751719	2.995288181751719	-1.7626726597731721	2.995288181751719
198	-0.5516108464145364	3.3801748920551815	3.3801748920551815	-3.335718618521758	3.3801748920551815
199	-0.04046203409646102	4.382180428537604	4.382180428537604	-2.851238520128752	4.382180428537604
200	-0.3235462353083994	-3.8499795352526585	3.620576225462202	-3.8499795352526585	3.8499795352526585
201	-0.8448181506723759	-4.260667349579673	3.5557307646848613	-4.260667349579673	4.260667349579673
202	-1.2470026841996513	-3.8548632564637257	2.400474129984471	-3.8548632564637257	3.8548632564637257
203	0.7079354577178659	5.50832493341005	5.50832493341005	-3.4297064814357574	5.50832493341005
204	0.740198883367152	6.912285865095003	6.912285865095003	-4.387879646775185	6.912285865095003
205	-1.14709738765016	4.929780360491247	4.929780360491247	-4.589734245318547	4.929780360491247
206	-0.1421950620922585	-3.52184801394242	3.364308728720081	-3.52184801394242	3.52184801394242
207	0.6365690451846139	4.175768914290401	4.175768914290401	-2.7042951945547147	4.175768914290401
208	-1.7192947268499539	-4.965912926267222	1.3262611943375144	-4.965912926267222	4.965912926267222
209	-0.14757908796027547	6.938217513976246	6.938217513976246	-3.952882257311214	6.938217513976246
210	-0.660331398754721	-4.123649790411784	3.2107964526646815	-4.123649790411784	4.123649790411784
211	0.0673363914047984	-4.244712465085359	3.1954959033936436	-4.244712465085359	4.244712465085359
212	0.08469722025080756	2.3665749164606558	2.3665749164606558	-2.3408571589763563	2.3665749164606558
213	-0.3518499724398059	-3.2945068574558434	2.567604897350577	-3.2945068574558434	3.2945068574558434
214	-0.24306171414854105	6.873493505369723	6.873493505369723	-4.03302095767033	6.873493505369723
215	-0.38620570872093835	4.118308260809558	4.118308260809558	-3.989692677038208	4.118308260809558
216	-1.3503813048493187	5.776048762443053	5.776048762443053	-3.99182517449347	5.776048762443053
217	0.6570973355420721	5.018658602189076	5.018658602189076	-4.406810998073777	5.018658602189076
218	0.04310214372860531	5.218478069545663	5.218478069545663	-3.507270348214689	5.218478069545663
219	0.2473446354230084	2.1560102588958716	2.1560102588958716	-2.058368298074532	2.1560102588958716
220	-1.8632522285162454	-4.803043747838927	1.4304221482655495	-4.803043747838927	4.803043747838927
221	1.8014826716242023	6.411378575572339	6.411378575572339	-3.5401378650866526	6.411378575572339
222	-0.4025967526593814	4.136826328685397	4.136826328685397	-2.644511234641968	4.136826328685397
223	2.467803632288862	18.618670967878018	18.618670967878018	-2.6328924954264057	18.618670967878018
224	-1.191396377503112	-4.363712072931115	1.7571801492667087	-4.363712072931115	4.363712072931115
225	-0.9648040007918747	-3.71278511710772	2.3768469047229113	-3.71278511710772	3.71278511710772
226	-1.886225814606884	-4.784584708761887	1.9190167026147846	-4.784584708761887	4.784584708761887
227	-0.9552566443264829	-3.681877170033124	1.6202461985606766	-3.681877170033124	3.681877170033124
228	2.266785880854953	8.691538889007495	8.691538889007495	-2.8756724644597256	8.691538889007495
229	-1.409022103625895	-4.840809566446197	2.797791473320796	-4.840809566446197	4.840809566446197
230	1.8594794402542099	8.068261585947877	8.068261585947877	-3.0884375734596885	8.068261585947877
231	-1.7740283751211723	-4.970343174022105	0.45274428069037836	-4.970343174022105	4.970343174022105
232	1.3069069713156973	6.401369069821545	6.401369069821545	-1.7344891223750518	6.401369069821545
233	0.08444241860238824	4.479252596991045	4.479252596991045	-3.725324051718177	4.479252596991045
234	0.33609586134193264	4.4468136935728	4.4468136935728	-2.2773209054439283	4.4468136935728
235	1.5844309238356113	3.996252556267434	3.996252556267434	-1.3034751814332604	3.996252556267434
236	-1.2639713368806134	-6.343750596049027	2.7199812631027545	-6.343750596049027	6.343750596049027
237	-0.06348746600888967	5.405746981967852	5.405746981967852	-3.589888266683994	5.405746981967852
238	-0.26528470530898746	3.677538388586532	3.677538388586532	-3.3386166881092425	3.677538388586532
239	0.5471076270159998	6.709227437387938	6.709227437387938	-3.0995071931203726	6.709227437387938
240	1.141824356279373	4.923686810853727	4.923686810853727	-2.096362902168652	4.923686810853727
241	0.34770829938434966	-5.343978052061024	5.066593155157538	-5.343978052061024	5.343978052061024
242	-1.6300093042629111	-4.518636836824857	2.5945150977790026	-4.518636836824857	4.518636836824857
243	0.4708000753450015	-5.971088786749926	4.613123311939442	-5.971088786749926	5.971088786749926
244	-1.6882892402610996	-4.490966908796188	1.9720285131374689	-4.490966908796188	4.490966908796188
245	-0.820514151520198	-3.6535567739431993	1.6914529179436129	-3.6535567739431993	3.6535567739431993
246	-2.0692080797233774	-5.524343167742117	0.8635375152760256	-5.524343167742117	5.524343167742117
247	-0.46023105664689185	-2.677117076924773	2.2731441958716903	-2.677117076924773	2.677117076924773
248	-0.657446156710085	-6.653085758557923	4.576202247109838	-6.653085758557923	6.653085758557923
249	-0.8945903258547016	-3.482341197099081	2.268066078811383	-3.482341197099081	3.482341197099081
250	-0.33875179412727835	-7.296863805891908	4.634751083545493	-7.296863805891908	7.296863805891908
251	-1.2287524572096105	-4.798053478820886	1.1882451669791385	-4.798053478820886	4.798053478820886
252	-0.7866055361440115	-4.421701740366007	2.9631246554950934	-4.421701740366007	4.421701740366007
253	0.026383537622257553	3.8145885195248708	3.8145885195248708	-3.0846790486642277	3.8145885195248708
254	-0.6835820764783954	11.739467054675234	11.739467054675234	-3.893676605848663	11.739467054675234
255	-0.7109527524409046	3.4824085109459775	3.4824085109459775	-2.917044253760964	3.4824085109459775
256	-0.210632536413827	3.678051090935154	3.678051090935154	-3.1020584011386885	3.678051090935154
257	-1.0802485195924196	-4.1163926700001925	3.2760880595160122	-4.1163926700001925	4.1163926700001925
258	-0.28941654126514266	-3.545333740029614	2.5366983848799247	-3.545333740029614	3.545333740029614
259	0.5223314872516519	4.11327363641535	4.11327363641535	-3.3682866436878216	4.11327363641535
260	1.5361009387398585	5.338698617008391	5.338698617008391	-3.8597201529553145	5.338698617008391
261	0.08165297379025273	3.568786377226138	3.568786377226138	-3.1661302888958307	3.568786377226138
262	-1.2314046094132531	-4.763446588234414	2.597724310774694	-4.763446588234414	4.763446588234414
263	-0.11282007196356364	-3.4829690133144857	3.020429631955409	-3.4829690133144857	3.4829690133144857
264	1.2922175652662826	4.823107304954224	4.823107304954224	-1.2189199425107056	4.823107304954224
265	0.601116111467322	4.396120636635086	4.396120636635086	-2.767479088631255	4.396120636635086
266	-0.2842824395702742	-4.128721182375205	3.175569854433518	-4.128721182375205	4.128721182375205
267	-0.36178936745444595	-4.354160596191637	3.4529511063131486	-4.354160596191637	4.354160596191637
268	0.3471657959945388	2.6070479980527796	2.6070479980527796	-1.9907836790448867	2.6070479980527796
269	-0.8422926758110247	-3.946904568150401	2.603141609109271	-3.946904568150401	3.946904568150401
270	-0.6077822467852425	-5.600280897191775	2.6449434574468436	-5.600280897191775	5.600280897191775
271	0.6434524785998401	2.6563609386032034	2.6563609386032034	-1.8275699747128156	2.6563609386032034
272	-1.77139741432493	-5.404103859035827	1.2305247505046413	-5.404103859035827	5.404103859035827
273	0.4331151566664041	-3.7657869746905175	3.6800472689826016	-3.7657869746905175	3.7657869746905175
274	-1.4683286934386062	-4.374791824859577	2.4154569727149187	-4.374791824859577	4.374791824859577
275	-0.5324892036813692	2.92413070519563	2.92413070519563	-2.9129995815475422	2.92413070519563
276	-1.5493749470645806	-6.991017617523457	1.1392794615888624	-6.991017617523457	6.991017617523457
277	1.60450713436682	4.056643663155211	4.056643663155211	-2.4175615822070506	4.056643663155211
278	0.9335058654730045	4.984981965414062	4.984981965414062	-3.4208900836542977	4.984981965414062
279	-0.006746586951224265	2.8015262084144323	2.8015262084144323	-2.7636779989897273	2.8015262084144323
280	0.6824576691793757	4.839224703916984	4.839224703916984	-4.004277677848716	4.839224703916984
281	-0.11586251444195278	-3.182903733533265	2.6419850518337653	-3.182903733533265	3.182903733533265
282	-0.5118821018405757	-2.6784510994149215	1.6490607788847298	-2.6784510994149215	2.6784510994149215
283	-0.6219068258399184	-4.717645348104481	4.001475140396872	-4.717645348104481	4.717645348104481
284	1.4666443922214376	4.722989278633468	4.722989278633468	-1.3275912284658449	4.722989278633468
285	-0.4323704734559526	-5.161535544208741	2.893552913722611	-5.161535544208741	5.161535544208741
286	-0.3275100754617928	3.7598247253763697	3.7598247253763697	-2.5635710994289127	3.7598247253763697
287	-0.16325265911407968	-3.414893439537818	2.2201931383096554	-3.414893439537818	3.414893439537818
288	1.0822280945489386	4.156639816537749	4.156639816537749	-3.5292545103922293	4.156639816537749
289	0.33664879313731255	3.6136808766217796	3.6136808766217796	-2.6309928292467886	3.6136808766217796
290	0.3386177402787081	4.911683074634462	4.911683074634462	-2.2076731723831586	4.911683074634462
291	0.4951037244430003	-5.666553750905446	2.6035373796053207	-5.666553750905446	5.666553750905446
292	0.6424319988486031	4.539473325282858	4.539473325282858	-3.189250066664661	4.539473325282858
293	0.638346204045595	4.531168868039339	4.531168868039339	-4.175754992235457	4.531168868039339
294	-0.03179866470214936	4.076726806408891	4.076726806408891	-3.9276288656216938	4.076726806408891
295	0.9423281453880674	4.169161903241282	4.169161903241282	-3.5239310128804893	4.169161903241282
296	0.15283285463311996	-3.4287664470744543	2.9156436567952833	-3.4287664470744543	3.4287664470744543
297	0.8445649400733698	5.221582064807932	5.221582064807932	-2.3598425987899625	5.221582064807932
298	2.172581613172787	3.799968847993844	3.799968847993844	-0.5575569776050678	3.799968847993844
299	1.8424099126275595	5.259831829494015	5.259831829494015	-2.0240066693040664	5.259831829494015
300	0.033502915539146076	3.8230275199719035	3.8230275199719035	-3.656592175179174	3.8230275199719035
301	0.5470725065240972	4.647205078449778	4.647205078449778	-2.6674756615880337	4.647205078449778
302	1.5145959876576678	5.528150851380394	5.528150851380394	-5.119973737109148	5.528150851380394
303	1.0693849783379685	3.7984325367317364	3.7984325367317364	-2.459076855011301	3.7984325367317364
304	-0.4407780855755336	-4.697919181083196	3.5217067233736223	-4.697919181083196	4.697919181083196
305	-0.6856247575782385	-5.643413186850156	2.9058178914366013	-5.643413186850156	5.643413186850156
306	-0.697129777498845	4.1370388647127285	4.1370388647127285	-3.209433882274987	4.1370388647127285
307	-0.13226941560332975	-3.157528646518812	2.9975131319814547	-3.157528646518812	3.157528646518812
308	-0.3100464151829277	-3.4216543367635563	2.61430988066149	-3.4216543367635563	3.4216543367635563
309	0.6003352516649385	5.8405227284402645	5.8405227284402645	-3.3226592272898796	5.8405227284402645
310	0.09252667243183624	-3.9559476564655114	3.3464477725371826	-3.9559476564655114	3.9559476564655114
311	-1.3786346683688422	-4.347679976030962	2.8993132589679647	-4.347679976030962	4.347679976030962
312	-0.4350827712396722	-6.244649282982435	3.9406371191108924	-6.244649282982435	6.244649282982435
313	0.47176754173417296	2.8769153531530822	2.8769153531530822	-2.1803642726500976	2.8769153531530822
314	-0.3944437265963259	-4.0832556753901095	2.0544183341302613	-4.0832556753901095	4.0832556753901095
315	3.2526431075881324e-5	3.713038867083131	3.713038867083131	-3.0150613539283686	3.713038867083131
316	-0.48302625330088467	-4.858668138767544	3.97392461044972	-4.858668138767544	4.858668138767544
317	-1.31601306673483	-5.18166035624417	2.2482544966286975	-5.18166035624417	5.18166035624417
318	0.7156288662315395	4.243363285244181	4.243363285244181	-2.4710829906477234	4.243363285244181
319	-0.010697630405457442	-3.622681629441198	2.614474801742475	-3.622681629441198	3.622681629441198
320	0.6696526304096979	4.640327148700897	4.640327148700897	-1.2047124631512487	4.640327148700897
321	0.233623374575786	3.7106037357439323	3.7106037357439323	-2.1554189660841976	3.7106037357439323
322	-0.12413024451234776	2.9425212897124187	2.9425212897124187	-2.826833291633167	2.9425212897124187
323	0.9516973057942435	3.5780601870570243	3.5780601870570243	-1.4416028050987872	3.5780601870570243
324	1.4647511077930007	3.140763039709054	3.140763039709054	-1.2243895838068295	3.140763039709054
325	-0.13022205952054375	-3.4515562997898472	2.9220752550181235	-3.4515562997898472	3.4515562997898472
326	-0.454784318086758	-2.475848158351621	1.8831773212030098	-2.475848158351621	2.475848158351621
327	0.661981875122399	4.3208955148936825	4.3208955148936825	-2.7364841659441286	4.3208955148936825
328	0.8701601466263255	4.256579367426822	4.256579367426822	-1.6396335492493759	4.256579367426822
329	0.10826351298749075	2.8356393589758895	2.8356393589758895	-1.7307462919735206	2.8356393589758895
330	0.13359579021192183	3.2298822930820754	3.2298822930820754	-2.820047221330532	3.2298822930820754
331	-0.023595519208258087	-4.006380195353718	3.8765769881105387	-4.006380195353718	4.006380195353718
332	1.3243756886315174	3.883831423656927	3.883831423656927	-1.479357553449729	3.883831423656927
